{"learner":{"attributes":{"best_iteration":"149","best_ntree_limit":"150","scikit_learn":"{\"use_label_encoder\": false, \"n_estimators\": 150, \"objective\": \"binary:logistic\", \"max_depth\": 6, \"max_leaves\": null, \"max_bin\": null, \"grow_policy\": null, \"learning_rate\": 0.3, \"verbosity\": null, \"booster\": null, \"tree_method\": null, \"gamma\": null, \"min_child_weight\": null, \"max_delta_step\": null, \"subsample\": 0.7, \"sampling_method\": null, \"colsample_bytree\": 0.9, \"colsample_bylevel\": null, \"colsample_bynode\": null, \"reg_alpha\": null, \"reg_lambda\": null, \"scale_pos_weight\": null, \"base_score\": null, \"missing\": NaN, \"num_parallel_tree\": null, \"random_state\": null, \"n_jobs\": null, \"monotone_constraints\": null, \"interaction_constraints\": null, \"importance_type\": null, \"gpu_id\": null, \"validate_parameters\": null, \"predictor\": null, \"enable_categorical\": false, \"max_cat_to_onehot\": null, \"eval_metric\": \"logloss\", \"early_stopping_rounds\": null, \"callbacks\": null, \"classes_\": [0, 1], \"n_classes_\": 2, \"_estimator_type\": \"classifier\"}"},"feature_names":["fico","dti","ltv","loan_age_months","original_balance","interest_rate","employment_length_years","delinquency_30d_12m","loan_purpose_code"],"feature_types":["float","float","float","int","float","float","int","int","int"],"gradient_booster":{"model":{"gbtree_model_param":{"num_parallel_tree":"1","num_trees":"150","size_leaf_vector":"0"},"tree_info":[0,0,0,0,0,0,0,0,0,0,0,0,0,0,0,0,0,0,0,0,0,0,0,0,0,0,0,0,0,0,0,0,0,0,0,0,0,0,0,0,0,0,0,0,0,0,0,0,0,0,0,0,0,0,0,0,0,0,0,0,0,0,0,0,0,0,0,0,0,0,0,0,0,0,0,0,0,0,0,0,0,0,0,0,0,0,0,0,0,0,0,0,0,0,0,0,0,0,0,0,0,0,0,0,0,0,0,0,0,0,0,0,0,0,0,0,0,0,0,0,0,0,0,0,0,0,0,0,0,0,0,0,0,0,0,0,0,0,0,0,0,0,0,0,0,0,0,0,0,0],"trees":[{"base_weights":[-1.8938019E0,-1.8296096E0,-1.9285243E0,-1.8537109E0,-1.7208288E0,-1.9315641E0,-1.7209302E0,-1.6460177E0,-1.861123E0,-1.6064073E0,-1.770335E0,-1.7434679E0,-4.6153846E-1,-1.6681614E0,-0E0,-1.8614184E0,-5E-1,-1.6133487E0,-2.2222222E-1,-1.7955346E0,-1.4972677E0,-1.7835052E0,-1.1351352E0,5E-1,-1.1111112E0,-1.6859123E0,-8.235294E-1,-1.6260355E0,-1E0,-1.5976331E0,-2.2222222E-1,2.2222222E-1,-1.375E0,-1.2727273E0,-0E0,-1.3043479E0,2.2222222E-1,-1.6564417E0,-0E0,-7.692308E-1,6.666667E-1,-6.666667E-1,-1.6190476E0],"categories":[],"categories_nodes":[],"categories_segments":[],"categories_sizes":[],"default_left":[1,1,1,1,1,0,1,1,1,1,1,1,1,1,0,0,0,1,0,0,1,0,1,0,0,0,1,0,1,1,1,0,1,0,0,0,0,0,0,0,0,0,0],"id":0,"left_children":[1,3,5,7,9,-1,11,13,15,17,19,21,23,25,-1,-1,-1,27,-1,-1,29,-1,31,-1,-1,-1,33,-1,35,37,39,-1,41,-1,-1,-1,-1,-1,-1,-1,-1,-1,-1],"loss_changes":[1.9933594E1,6.548828E0,9.765625E-1,1.5986328E0,1.052002E0,0E0,2.246582E0,4.1187134E0,2.421875E-1,1.7407837E0,5.4748535E-1,5.389404E-1,2.58547E0,2.833252E-1,0E0,0E0,0E0,6.451416E-2,0E0,0E0,5.4996185E0,0E0,3.317192E0,0E0,0E0,0E0,1.5721927E0,0E0,2.8937197E0,3.969574E0,2.7008545E0,0E0,3.035717E-1,0E0,0E0,0E0,0E0,0E0,0E0,0E0,0E0,0E0,0E0],"parents":[2147483647,0,0,1,1,2,2,3,3,4,4,6,6,7,7,8,8,9,9,10,10,11,11,12,12,13,13,17,17,20,20,22,22,26,26,28,28,29,29,30,30,32,32],"right_children":[2,4,6,8,10,-1,12,14,16,18,20,22,24,26,-1,-1,-1,28,-1,-1,30,-1,32,-1,-1,-1,34,-1,36,38,40,-1,42,-1,-1,-1,-1,-1,-1,-1,-1,-1,-1],"split_conditions":[6.864969E2,5E-1,1.5E0,5.777526E2,6.375984E2,-5.7946926E-1,8.3949927E2,5.775016E2,6.864741E2,6.375074E2,1.5E0,2.75E1,2.06743E5,2.85E1,-0E0,-5.5842555E-1,-1.5E-1,9.7955203E-1,-6.666667E-2,-5.386604E-1,6.830905E2,-5.350516E-1,5.8608748E-2,1.5E-1,-3.3333337E-1,-5.057737E-1,8.784108E-1,-4.8781064E-1,6.2920624E2,8.373088E-2,8.7208796E-1,6.666667E-2,2.5416725E5,-3.818182E-1,-0E0,-3.9130437E-1,6.666667E-2,-4.9693254E-1,-0E0,-2.3076925E-1,2.0000002E-1,-2.0000002E-1,-4.8571432E-1],"split_indices":[0,7,7,0,0,0,0,0,0,0,7,6,4,6,0,0,0,2,0,0,0,0,5,0,0,0,2,0,0,5,2,0,4,0,0,0,0,0,0,0,0,0,0],"split_type":[0,0,0,0,0,0,0,0,0,0,0,0,0,0,0,0,0,0,0,0,0,0,0,0,0,0,0,0,0,0,0,0,0,0,0,0,0,0,0,0,0,0,0],"sum_hessian":[1.05265E4,3.714E3,6.8125E3,3.02725E3,6.8675E2,6.706E3,1.065E2,1.12E2,2.91525E3,2.175E2,4.6925E2,1.0425E2,2.25E0,1.105E2,1.5E0,2.91425E3,1E0,2.1625E2,1.25E0,4.245E2,4.475E1,9.6E1,8.25E0,1E0,1.25E0,1.0725E2,3.25E0,2.1025E2,6E0,4.125E1,3.5E0,1.25E0,7E0,1.75E0,1.5E0,4.75E0,1.25E0,3.975E1,1.5E0,2.25E0,1.25E0,2.75E0,4.25E0],"tree_param":{"num_deleted":"0","num_feature":"9","num_nodes":"43","size_leaf_vector":"0"}},{"base_weights":[-1.4487653E0,-1.3279629E0,-1.4636787E0,-1.3643562E0,-1.1647215E0,-1.4763155E0,-1.4052886E0,-1.3679191E0,-5.0189316E-1,5.319965E-1,-1.1771363E0,-1.4380183E0,-1.4905238E0,-1.439424E0,-1.3029737E0,-1.3939697E0,-1.2465066E0,7.4813724E-1,-1.1604984E0,-6.378886E-1,-1.2135507E0,-1.4389042E0,-4.8178768E-1,-3.6977905E-1,-1.4907031E0,-1.3091289E0,-1.4672482E0,3.7409294E-1,-1.3089888E0,-5.6777585E-1,-1.396149E0,-7.915762E-1,-1.2692684E0,-1.1591555E0,-2.1106912E-2,-1.2552208E0,-7.9655606E-1,-1.4627079E0,-1.3870639E0,9.519186E-2,-8.3475E-1,-1.320193E0,-5.104266E-2,-4.8623157E-1,-1.4700959E0,-8.940314E-2,-1.3172957E0,-9.179264E-1,8.3638065E-2,-1.1059692E0,7.1143705E-1,-1.3096066E0,-1.0231131E0,-7.13555E-1,5.6919086E-1,7.584279E-2,-1.2648662E0,5.366052E-1,-9.846444E-1,8.3638065E-2,-1.3899041E0,-1.1950263E0,-1.450619E0,1.7845291E-1,-9.65541E-1,-1.4718096E0,-5.4402214E-1,-4.9514303E-1,3.552039E-1,-1.3764079E0,-1.1286225E0],"categories":[],"categories_nodes":[],"categories_segments":[],"categories_sizes":[],"default_left":[1,1,1,1,1,1,1,1,1,0,1,1,1,1,1,1,1,0,0,1,1,1,1,0,0,1,1,0,1,1,0,1,1,0,1,1,1,0,1,0,0,1,0,1,1,1,1,0,0,0,0,0,0,0,0,0,0,0,0,0,0,0,0,0,0,0,0,0,0,0,0],"id":1,"left_children":[1,3,5,7,9,11,13,15,17,-1,19,21,23,25,27,29,31,-1,-1,33,35,37,39,-1,-1,41,43,-1,45,47,-1,49,51,-1,53,55,57,-1,59,-1,-1,61,-1,63,65,67,69,-1,-1,-1,-1,-1,-1,-1,-1,-1,-1,-1,-1,-1,-1,-1,-1,-1,-1,-1,-1,-1,-1,-1,-1],"loss_changes":[1.55390625E1,4.810547E0,4.2929688E0,2.0021973E0,4.906708E0,1.7060547E0,3.558838E0,1.0167236E0,5.1322904E0,0E0,3.1933289E0,9.523926E-1,4.794922E-1,2.27417E0,4.522644E0,4.831543E-1,6.8618774E-1,0E0,0E0,4.762395E0,2.2695923E0,3.6547852E-1,7.517869E-1,0E0,0E0,2.8961182E0,1.9259033E0,0E0,3.9203491E0,8.8638246E-1,0E0,5.7191043E0,1.8780518E-1,0E0,3.6099932E0,2.269867E0,5.5010014E0,0E0,2.7475586E0,0E0,0E0,1.7111511E0,0E0,1.5199507E0,6.9433594E-1,8.5584474E-1,2.861145E0,0E0,0E0,0E0,0E0,0E0,0E0,0E0,0E0,0E0,0E0,0E0,0E0,0E0,0E0,0E0,0E0,0E0,0E0,0E0,0E0,0E0,0E0,0E0,0E0],"parents":[2147483647,0,0,1,1,2,2,3,3,4,4,5,5,6,6,7,7,8,8,10,10,11,11,12,12,13,13,14,14,15,15,16,16,19,19,20,20,21,21,22,22,25,25,26,26,28,28,29,29,31,31,32,32,34,34,35,35,36,36,38,38,41,41,43,43,44,44,45,45,46,46],"right_children":[2,4,6,8,10,12,14,16,18,-1,20,22,24,26,28,30,32,-1,-1,34,36,38,40,-1,-1,42,44,-1,46,48,-1,50,52,-1,54,56,58,-1,60,-1,-1,62,-1,64,66,68,70,-1,-1,-1,-1,-1,-1,-1,-1,-1,-1,-1,-1,-1,-1,-1,-1,-1,-1,-1,-1,-1,-1,-1,-1],"split_conditions":[6.362732E2,3.1513065E-1,5E-1,9.181667E-2,3.1554663E-1,6.871176E2,9.166721E-1,5E-1,9.437299E-2,1.5959895E-1,5.6203906E2,6.8707526E2,3.003662E-2,6.727593E2,6.373176E2,1.0714555E-1,1.3230588E5,2.2444119E-1,-3.4814954E-1,8.604027E-1,4.3353173E-1,2.751619E-1,8.620362E-1,-1.1093372E-1,-4.4721094E-1,2.5E0,1.07630536E-1,1.1222789E-1,9.1696656E-1,1.0425604E-1,-4.1884473E-1,1.2726686E5,3.2968075E5,-3.4774667E-1,1.15E1,3.703946E-2,4.3628266E-1,-4.3881238E-1,2.7525443E-1,2.855756E-2,-2.50425E-1,6.35E1,-1.5312799E-2,1.15E1,5.0085604E-1,7.070867E2,2.9635543E-1,-2.7537793E-1,2.509142E-2,-3.3179078E-1,2.1343112E-1,-3.92882E-1,-3.0693394E-1,-2.140665E-1,1.7075726E-1,2.2752838E-2,-3.794599E-1,1.6098157E-1,-2.9539335E-1,2.509142E-2,-4.1697127E-1,-3.585079E-1,-4.351857E-1,5.3535875E-2,-2.896623E-1,-4.415429E-1,-1.6320665E-1,-1.4854291E-1,1.0656118E-1,-4.1292238E-1,-3.3858678E-1],"split_indices":[0,1,7,5,1,0,2,7,5,0,0,0,5,0,0,1,4,0,0,2,1,1,2,0,0,7,1,0,2,1,0,4,4,0,6,5,1,0,1,0,0,3,0,6,1,0,1,0,0,0,0,0,0,0,0,0,0,0,0,0,0,0,0,0,0,0,0,0,0,0,0],"split_type":[0,0,0,0,0,0,0,0,0,0,0,0,0,0,0,0,0,0,0,0,0,0,0,0,0,0,0,0,0,0,0,0,0,0,0,0,0,0,0,0,0,0,0,0,0,0,0,0,0,0,0,0,0,0,0,0,0,0,0,0,0,0,0,0,0,0,0,0,0,0,0],"sum_hessian":[9.703806E3,1.0762156E3,8.627591E3,8.7400525E2,2.0221031E2,7.07265E3,1.5549406E3,8.6982587E2,4.179399E0,1.1648079E0,2.010455E2,1.9415723E3,5.1310776E3,1.1561451E3,3.9879547E2,7.0753406E2,1.6229184E2,1.3952596E0,2.7841396E0,1.3888783E1,1.8715672E2,1.9392709E3,2.3013444E0,1.1506722E0,5.129927E3,2.1190147E2,9.442436E2,1.2065392E0,3.9758896E2,2.5494697E0,7.0498456E2,9.437865E0,1.5285397E2,7.0506425E0,6.838141E0,1.6832584E2,1.8830881E1,1.3103701E3,6.289008E2,1.1506722E0,1.1506722E0,2.100052E2,1.8962588E0,3.230042E0,9.4101355E2,2.7693326E0,3.948196E2,1.3920698E0,1.1574E0,8.023677E0,1.4141885E0,1.27620255E2,2.523372E1,3.0507073E0,3.7874336E0,1.1616181E0,1.6716423E2,2.099164E0,1.6731718E1,1.1574E0,6.277434E2,1.1234896E2,9.765624E1,1.6163076E0,1.6137345E0,9.3868713E2,2.3264458E0,1.388526E0,1.3808067E0,2.9583728E2,9.8982346E1],"tree_param":{"num_deleted":"0","num_feature":"9","num_nodes":"71","size_leaf_vector":"0"}},{"base_weights":[-1.231959E0,-1.1686262E0,-1.2670002E0,-9.6584296E-1,-1.1791608E0,-1.281072E0,-1.2284808E0,-1.0234064E0,-5.037681E-1,-1.2062048E0,-1.1146762E0,-2.694304E-1,-1.2290705E0,-1.048833E0,-4.696662E-1,6.113807E-1,-7.1999055E-1,-2.1019872E-1,-1.2074547E0,-2.6577446E-1,-1.1246225E0,-8.5637593E-1,-1.2314833E0,-1.0605947E0,-7.8285374E-2,-8.706029E-1,7.437538E-2,-4.783858E-2,1.0960182E0,-1.1085016E0,-2.8653985E-1,7.133661E-1,-8.569076E-1,-1.2082906E0,-2.6163232E-1,1.2272995E-1,-7.2743326E-1,-1.2267278E0,-1.086728E0,-1.0621343E0,4.7104964E-1,-3.8837105E-1,-1.0813711E0,-2.0829912E-1,-1.0044622E0,1.0746683E0,-8.993177E-1,-4.0054634E-1,-1.1976157E0,-6.4426416E-1,5.319666E-1,-1.2290314E0,-1.1563951E0,-4.1984156E-1,1.4169735E0,-1.0344222E0,1.6333143E-1,-1.0924836E0,-2.1998623E-1,-2.716937E-1,-1.1273462E0],"categories":[],"categories_nodes":[],"categories_segments":[],"categories_sizes":[],"default_left":[1,1,1,1,1,0,1,1,1,1,1,0,1,1,1,1,1,1,1,1,1,1,0,1,0,1,1,0,0,1,1,0,0,1,0,1,1,0,1,1,0,0,0,0,0,0,0,0,0,0,0,0,0,0,0,0,0,0,0,0,0],"id":2,"left_children":[1,3,5,7,9,-1,11,13,15,17,19,-1,21,23,25,27,29,31,33,35,37,39,-1,41,-1,43,45,-1,-1,47,49,-1,-1,51,-1,53,55,-1,57,59,-1,-1,-1,-1,-1,-1,-1,-1,-1,-1,-1,-1,-1,-1,-1,-1,-1,-1,-1,-1,-1],"loss_changes":[1.6795898E1,5.1555176E0,1.2939453E0,3.5017395E0,3.5319824E0,0E0,4.831543E-1,1.3847046E0,4.94923E0,2.1835938E0,6.788574E0,0E0,2.3901367E-1,1.3629303E0,1.73659E0,1.1954894E0,2.3974133E0,2.800199E0,1.2297363E0,2.0676763E0,1.8759766E0,3.9244604E0,0E0,1.3268433E0,0E0,1.8895268E-1,5.031092E0,0E0,0E0,3.468895E-2,2.9688885E0,0E0,0E0,6.8115234E-1,0E0,5.4019365E0,1.586832E0,0E0,2.8209229E0,2.6903915E-1,0E0,0E0,0E0,0E0,0E0,0E0,0E0,0E0,0E0,0E0,0E0,0E0,0E0,0E0,0E0,0E0,0E0,0E0,0E0,0E0,0E0],"parents":[2147483647,0,0,1,1,2,2,3,3,4,4,6,6,7,7,8,8,9,9,10,10,12,12,13,13,14,14,15,15,16,16,17,17,18,18,19,19,20,20,21,21,23,23,25,25,26,26,29,29,30,30,33,33,35,35,36,36,38,38,39,39],"right_children":[2,4,6,8,10,-1,12,14,16,18,20,-1,22,24,26,28,30,32,34,36,38,40,-1,42,-1,44,46,-1,-1,48,50,-1,-1,52,-1,54,56,-1,58,60,-1,-1,-1,-1,-1,-1,-1,-1,-1,-1,-1,-1,-1,-1,-1,-1,-1,-1,-1,-1,-1],"split_conditions":[6.8647675E2,5.8401166E2,9.156029E-1,9.5418626E-1,2.8160727E-1,-3.8432163E-1,9.1566753E-1,8.202274E-2,9.5932347E-1,1.0282014E-1,2.825145E-1,-8.082912E-2,1.5E0,5.8367004E2,5.660585E2,1.25E1,2.242946E-1,8.8653874E-1,6.8641516E2,6.712139E-2,8.0956995E-1,3.2749988E5,-3.6944503E-1,5.126161E2,-2.3485614E-2,8.4619075E-2,5.774757E2,-1.4351575E-2,3.2880548E-1,9.646807E-1,9.791058E-1,2.1400984E-1,-2.570723E-1,9.0952057E-1,-7.84897E-2,6.407799E-2,6.7009143E2,-3.6801836E-1,4.9426776E-1,7.027066E2,1.413149E-1,-1.1651132E-1,-3.2441133E-1,-6.2489737E-2,-3.0133867E-1,3.224005E-1,-2.6979533E-1,-1.2016391E-1,-3.5928473E-1,-1.9327925E-1,1.5958999E-1,-3.6870944E-1,-3.4691852E-1,-1.2595247E-1,4.2509207E-1,-3.1032667E-1,4.8999432E-2,-3.277451E-1,-6.599587E-2,-8.1508115E-2,-3.3820385E-1],"split_indices":[0,0,2,2,1,0,2,5,2,1,1,0,3,0,0,6,1,2,0,5,2,4,0,0,0,5,0,0,0,2,2,0,0,2,0,5,0,0,1,0,0,0,0,0,0,0,0,0,0,0,0,0,0,0,0,0,0,0,0,0,0],"split_type":[0,0,0,0,0,0,0,0,0,0,0,0,0,0,0,0,0,0,0,0,0,0,0,0,0,0,0,0,0,0,0,0,0,0,0,0,0,0,0,0,0,0,0,0,0,0,0,0,0,0,0,0,0,0,0,0,0,0,0,0,0],"sum_hessian":[8.234428E3,2.9453718E3,5.289056E3,1.5003403E2,2.795338E3,3.8502432E3,1.4388129E3,1.3233363E2,1.7700394E1,1.9569265E3,8.3841125E2,1.1655734E0,1.4376472E3,1.2566908E2,6.6645474E0,2.5778418E0,1.5122552E1,2.6648118E0,1.9542617E3,1.0030538E1,8.283807E2,1.1536729E1,1.4261105E3,1.2407271E2,1.5963712E0,3.491329E0,3.1732187E0,1.4740636E0,1.103778E0,7.153411E0,7.9691415E0,1.0550392E0,1.6097727E0,1.9522589E3,2.00283E0,5.8454833E0,4.185055E0,2.1573006E2,6.1265063E2,1.0161494E1,1.375234E0,4.3101373E0,1.1976257E2,1.0167584E0,2.4745705E0,1.5140765E0,1.6591423E0,1.414094E0,5.739317E0,5.6936417E0,2.2755E0,1.3785984E3,5.736605E2,4.5948453E0,1.250638E0,2.9924695E0,1.1925851E0,6.083504E2,4.300255E0,1.1681803E0,8.993314E0],"tree_param":{"num_deleted":"0","num_feature":"9","num_nodes":"61","size_leaf_vector":"0"}},{"base_weights":[-1.0892646E0,-9.975666E-1,-1.1246436E0,-1.0081073E0,-4.425233E-1,-1.1292163E0,-8.242918E-1,-9.4107664E-1,-1.0562662E0,-1.058689E0,-2.2354716E-1,-1.1410445E0,-1.0690336E0,-8.7264454E-1,3.9360625E-1,-8.111087E-2,-9.461294E-1,-1.058749E0,3.5768035E-1,-1.854354E-1,-1.1467681E0,1.6221924E0,-3.5812783E-1,-1.1073682E0,-1.1623675E0,-1.1451367E0,-1.0295658E0,-9.8552763E-1,-2.6516888E-1,9.2935354E-1,-3.4387884E-1,6.9878125E-1,-5.520921E-1,-9.915054E-1,-8.4161144E-1,-1.0859869E0,-9.982015E-1,-5.601475E-1,3.4649643E-1,-1.1083907E0,-4.0087315E-1,-2.3051408E-1,-1.148308E0,-4.5423666E-1,-1.0347283E0,-1.0628968E0,-6.5954256E-1,1.1490949E0,-5.024321E-1,-9.170189E-1,2.9092106E-1,-9.957899E-1,-4.935606E-2,-9.0213704E-1,-5.657035E-1,-1.1252328E0,-1.0386904E0,-5.151657E-1,-1.0051106E0,-6.876506E-1,4.8309645E-1,9.2374116E-1,-8.279976E-1,-1.5403649E-1,-1.1089122E0,-7.9115796E-1,2.9830945E-1,-2.957578E-1,-1.1509044E0,-8.2848436E-1,6.2446374E-1,-1.0380795E0,-6.0109013E-1,-2.0352438E-1,-1.0792007E0,2.584346E-1,-8.0451405E-1,-9.464642E-1,1.15595825E-1],"categories":[],"categories_nodes":[],"categories_segments":[],"categories_sizes":[],"default_left":[1,1,1,1,1,1,1,1,1,1,1,1,1,1,1,1,1,1,0,0,0,0,1,1,0,1,1,1,1,0,0,0,1,1,1,1,1,1,1,1,1,0,1,1,1,1,1,0,1,0,0,0,0,0,0,0,0,0,0,0,0,0,0,0,0,0,0,0,0,0,0,0,0,0,0,0,0,0,0],"id":3,"left_children":[1,3,5,7,9,11,13,15,17,19,21,23,25,27,29,31,33,35,-1,-1,-1,-1,37,39,-1,41,43,45,47,-1,-1,-1,49,51,53,55,57,59,61,63,65,-1,67,69,71,73,75,-1,77,-1,-1,-1,-1,-1,-1,-1,-1,-1,-1,-1,-1,-1,-1,-1,-1,-1,-1,-1,-1,-1,-1,-1,-1,-1,-1,-1,-1,-1,-1],"loss_changes":[2.091504E1,1.06698E1,5.7905273E0,5.022461E0,4.7814503E0,2.2094727E0,4.8832436E0,3.348877E0,4.1573486E0,5.168209E-1,7.71196E0,1.5932617E0,1.2454834E0,4.8445168E0,1.7549722E0,2.479071E0,2.8822632E0,6.883545E-1,0E0,0E0,0E0,0E0,4.119458E0,6.9433594E-1,0E0,5.0897217E-1,1.1380615E0,8.7332535E-1,4.9515867E0,0E0,0E0,0E0,1.5317135E0,2.1339722E0,3.5618591E0,1.8609619E-1,6.364136E-1,3.2337713E0,5.349508E0,6.1242676E-1,1.2850919E0,0E0,2.4743652E-1,3.1807504E0,1.5466309E-1,4.64283E-1,2.1520276E0,0E0,3.363785E0,0E0,0E0,0E0,0E0,0E0,0E0,0E0,0E0,0E0,0E0,0E0,0E0,0E0,0E0,0E0,0E0,0E0,0E0,0E0,0E0,0E0,0E0,0E0,0E0,0E0,0E0,0E0,0E0,0E0,0E0],"parents":[2147483647,0,0,1,1,2,2,3,3,4,4,5,5,6,6,7,7,8,8,9,9,10,10,11,11,12,12,13,13,14,14,15,15,16,16,17,17,22,22,23,23,25,25,26,26,27,27,28,28,32,32,33,33,34,34,35,35,36,36,37,37,38,38,39,39,40,40,42,42,43,43,44,44,45,45,46,46,48,48],"right_children":[2,4,6,8,10,12,14,16,18,20,22,24,26,28,30,32,34,36,-1,-1,-1,-1,38,40,-1,42,44,46,48,-1,-1,-1,50,52,54,56,58,60,62,64,66,-1,68,70,72,74,76,-1,78,-1,-1,-1,-1,-1,-1,-1,-1,-1,-1,-1,-1,-1,-1,-1,-1,-1,-1,-1,-1,-1,-1,-1,-1,-1,-1,-1,-1,-1,-1],"split_conditions":[6.7267676E2,1.5E0,1.5E0,6.362732E2,1.8479602E5,5E-1,4.1346335E-1,5.126161E2,6.726521E2,4.5E0,1.9432914E5,7.1799884E2,1.9603679E-1,7.3408246E-2,4.6222156E-1,2.0319762E5,2.8236705E-1,2.7604002E-1,1.0730411E-1,-5.563062E-2,-3.4403044E-1,4.8665774E-1,2.15E1,7.179212E2,-3.4871024E-1,3.760618E-2,1.972978E-1,3.0215114E-1,8E0,2.7880606E-1,-1.0316365E-1,2.0963438E-1,5.0997974E2,6.360874E2,5E-1,2.5465819E5,2.5E0,6.680408E2,7.7E1,3.321691E-2,2.7107372E5,-6.9154225E-2,1.0350685E-1,1.9693562E-1,4.4050144E5,7.409147E4,3.1028262E-1,3.447285E-1,1.85E1,-2.7510568E-1,8.7276325E-2,-2.98737E-1,-1.4806818E-2,-2.7064112E-1,-1.6971105E-1,-3.3756986E-1,-3.1160715E-1,-1.5454972E-1,-3.015332E-1,-2.0629519E-1,1.4492895E-1,2.7712235E-1,-2.483993E-1,-4.621095E-2,-3.3267367E-1,-2.373474E-1,8.9492835E-2,-8.872734E-2,-3.4527135E-1,-2.4854532E-1,1.8733913E-1,-3.1142387E-1,-1.8032704E-1,-6.1057318E-2,-3.2376024E-1,7.7530384E-2,-2.4135423E-1,-2.8393927E-1,3.467875E-2],"split_indices":[0,7,7,0,4,7,1,0,0,6,4,0,1,5,1,4,1,1,0,0,0,0,6,0,0,5,1,1,3,0,0,0,0,0,7,4,3,0,3,5,4,0,1,1,4,4,1,0,6,0,0,0,0,0,0,0,0,0,0,0,0,0,0,0,0,0,0,0,0,0,0,0,0,0,0,0,0,0,0],"split_type":[0,0,0,0,0,0,0,0,0,0,0,0,0,0,0,0,0,0,0,0,0,0,0,0,0,0,0,0,0,0,0,0,0,0,0,0,0,0,0,0,0,0,0,0,0,0,0,0,0,0,0,0,0,0,0,0,0,0,0,0,0,0,0,0,0,0,0,0,0,0,0,0,0,0,0,0,0,0,0],"sum_hessian":[6.7916416E3,1.8989634E3,4.8926787E3,1.8627716E3,3.6191742E1,4.816588E3,7.609066E1,7.873824E2,1.0753892E3,8.484086E0,2.7707657E1,4.0104307E3,8.0615717E2,7.345774E1,2.6329203E0,4.698874E0,7.8268353E2,1.073755E3,1.6341699E0,1.0618441E0,7.4222417E0,1.1317885E0,2.6575869E1,1.5753489E3,2.4350818E3,2.6573767E2,5.404195E2,6.1421806E1,1.20359335E1,1.3743533E0,1.2585671E0,1.5871161E0,3.1117578E0,5.3983167E2,2.4285187E2,7.289102E2,3.448448E2,2.0813549E1,5.762319E0,1.5725044E3,2.844476E0,1.1728396E0,2.6456482E2,5.597434E0,5.34822E2,4.781325E1,1.3608553E1,1.1770035E0,1.0858931E1,2.1104088E0,1.0013491E0,5.373312E2,2.500484E0,1.9730058E2,4.5551292E1,3.859025E2,3.4300775E2,5.9285564E0,3.3891623E2,1.885053E1,1.9630187E0,4.006626E0,1.7556927E0,1.0207298E0,1.5714836E3,1.7410643E0,1.1034118E0,1.1521517E0,2.634127E2,4.32787E0,1.269564E0,5.293374E2,5.4846473E0,1.1412511E0,4.6672E1,1.7492746E0,1.1859279E1,6.0097227E0,4.849208E0],"tree_param":{"num_deleted":"0","num_feature":"9","num_nodes":"79","size_leaf_vector":"0"}},{"base_weights":[-9.799868E-1,-8.5697895E-1,-1.0287112E0,-8.9474654E-1,-7.021261E-1,-1.033238E0,-7.585662E-1,-8.967926E-1,8.0693674E-1,-7.1575177E-1,6.231078E-1,-9.630933E-1,-1.0451155E0,-1.0487683E-1,-7.9263294E-1,-6.649847E-1,-9.0968895E-1,-7.293982E-1,8.227803E-2,-2.5948125E-1,1.1004093E0,-9.6745163E-1,8.536656E-2,-1.0453775E0,-9.279018E-2,-7.9660815E-1,6.339859E-1,-3.2836205E-1,-8.333106E-1,-6.96979E-1,6.834708E-1,-1.0211089E0,-8.859343E-1,-7.367759E-1,4.6552813E-1,8.168053E-1,-6.266952E-1,-9.7037315E-1,2.3201318E-1,8.8387525E-1,-6.6140026E-1,-1.0735226E0,-1.0268282E0,-8.230534E-1,1.0491186E0,-8.5528356E-1,-1.21841215E-1,-8.240693E-1,-2.87324E-1,-1.0283027E0,-4.1200778E-1,-7.0236556E-2,-8.910564E-1,-5.654414E-1,-8.083161E-1,-1.8698062E-1,1.340372E0,-1.7257078E-1,-7.4971944E-1,-9.814239E-1,-6.7318803E-1,3.9673364E-1,-1.0277416E0,-1.3002987E-1,-9.5587623E-1,-4.6074706E-1,-8.905335E-1],"categories":[],"categories_nodes":[],"categories_segments":[],"categories_sizes":[],"default_left":[1,1,1,1,1,1,1,1,0,1,1,1,1,1,1,1,1,1,1,0,0,1,1,1,0,0,0,1,1,1,0,1,1,1,0,1,1,1,0,0,0,0,1,1,0,1,0,0,0,0,0,0,0,0,0,0,0,0,0,0,0,0,0,0,0,0,0],"id":4,"left_children":[1,3,5,7,9,11,13,15,-1,17,19,21,23,25,27,29,31,33,35,-1,-1,37,39,41,-1,-1,-1,43,45,47,-1,49,51,53,-1,55,57,59,-1,-1,-1,-1,61,63,-1,65,-1,-1,-1,-1,-1,-1,-1,-1,-1,-1,-1,-1,-1,-1,-1,-1,-1,-1,-1,-1,-1],"loss_changes":[3.2331055E1,8.601807E0,4.064453E0,5.128479E0,6.1175995E0,2.2392578E0,1.4555855E0,3.1740112E0,0E0,3.4507904E0,1.8573154E0,2.718872E0,7.314453E-1,2.8433235E0,9.637718E-1,3.5109024E0,2.2575073E0,3.042633E0,3.7059312E0,0E0,0E0,2.2387695E0,2.5566902E0,6.3061523E-1,0E0,0E0,0E0,5.5847917E0,8.2740784E-1,3.3660965E0,0E0,4.676056E-1,4.083557E0,3.278183E0,0E0,2.0619655E0,7.6598525E-2,1.2224731E0,0E0,0E0,0E0,0E0,3.0390625E0,3.965385E-1,0E0,3.9133072E-1,0E0,0E0,0E0,0E0,0E0,0E0,0E0,0E0,0E0,0E0,0E0,0E0,0E0,0E0,0E0,0E0,0E0,0E0,0E0,0E0,0E0],"parents":[2147483647,0,0,1,1,2,2,3,3,4,4,5,5,6,6,7,7,9,9,10,10,11,11,12,12,13,13,14,14,15,15,16,16,17,17,18,18,21,21,22,22,23,23,27,27,28,28,29,29,31,31,32,32,33,33,35,35,36,36,37,37,42,42,43,43,45,45],"right_children":[2,4,6,8,10,12,14,16,-1,18,20,22,24,26,28,30,32,34,36,-1,-1,38,40,42,-1,-1,-1,44,46,48,-1,50,52,54,-1,56,58,60,-1,-1,-1,-1,62,64,-1,66,-1,-1,-1,-1,-1,-1,-1,-1,-1,-1,-1,-1,-1,-1,-1,-1,-1,-1,-1,-1,-1],"split_conditions":[6.7267676E2,5E-1,1.5E0,6.7266235E2,2.5E0,6.903399E2,1.2912931E5,5.777526E2,2.4208103E-1,4.3330854E-1,6.15E1,6.902581E2,5.2293106E5,2.1649164E-1,5.236897E-2,5.774287E2,1.7259931E5,6.724578E2,6.364512E2,-7.784438E-2,3.301228E-1,5.009042E-1,2.4354016E5,2.0862442E-1,-2.7837055E-2,-2.3898245E-1,1.9019577E-1,5.0733455E-2,1.155E2,3.0848584E-1,2.0504124E-1,6.72109E2,1.7413247E5,6.249768E2,1.3965845E-1,5.45E1,6.0822483E-2,8.282912E-2,6.960396E-2,2.651626E-1,-1.9842009E-1,-3.2205677E-1,2.0865E-1,4.4401925E-2,3.147356E-1,6.853407E2,-3.6552366E-2,-2.472208E-1,-8.6197205E-2,-3.084908E-1,-1.2360234E-1,-2.1070968E-2,-2.6731694E-1,-1.6963243E-1,-2.4249484E-1,-5.609419E-2,4.0211162E-1,-5.1771235E-2,-2.2491585E-1,-2.944272E-1,-2.0195642E-1,1.190201E-1,-3.083225E-1,-3.9008964E-2,-2.867629E-1,-1.3822412E-1,-2.6716006E-1],"split_indices":[0,7,7,0,7,0,4,0,0,1,3,0,4,1,5,0,4,0,0,0,0,1,4,1,0,0,0,5,3,1,0,0,4,0,0,3,5,5,0,0,0,0,1,5,0,0,0,0,0,0,0,0,0,0,0,0,0,0,0,0,0,0,0,0,0,0,0],"split_type":[0,0,0,0,0,0,0,0,0,0,0,0,0,0,0,0,0,0,0,0,0,0,0,0,0,0,0,0,0,0,0,0,0,0,0,0,0,0,0,0,0,0,0,0,0,0,0,0,0,0,0,0,0,0,0,0,0,0,0,0,0,0,0,0,0,0,0],"sum_hessian":[5.540432E3,1.5772233E3,3.9632087E3,1.2641318E3,3.130915E2,3.8951123E3,6.809639E1,1.263086E3,1.045683E0,3.1036038E2,2.7311296E0,5.759255E2,3.319187E3,3.5750546E0,6.452134E1,6.933704E1,1.193749E3,3.0522696E2,5.1334243E0,1.1187612E0,1.6123686E0,5.736182E2,2.3072205E0,3.3181763E3,1.0105665E0,1.8060534E0,1.7690014E0,5.9285564E0,5.859278E1,6.820197E1,1.1350725E0,2.0240266E2,9.913464E2,3.0373505E2,1.4919052E0,2.4465723E0,2.686852E0,5.7241504E2,1.2032222E0,1.0262554E0,1.2809651E0,1.2955475E3,2.0226289E3,4.658172E0,1.2703844E0,5.664134E1,1.9514413E0,5.1281048E1,1.6920923E1,1.9935988E2,3.0427804E0,6.2780457E0,9.8506836E2,9.208971E1,2.1164534E2,1.0590414E0,1.3875308E0,1.08489E0,1.6019619E0,5.4967316E2,2.2741896E1,1.0190916E0,2.0216099E3,1.0674676E0,3.5907044E0,5.7996273E0,5.0841713E1],"tree_param":{"num_deleted":"0","num_feature":"9","num_nodes":"67","size_leaf_vector":"0"}},{"base_weights":[-8.763986E-1,-7.7607274E-1,-9.424874E-1,-8.168251E-1,-6.10228E-1,-9.713633E-1,-8.168926E-1,-5.325587E-1,-8.338393E-1,-4.21465E-1,-6.940494E-1,-9.5355475E-1,-1.0320826E0,-8.810457E-1,-6.34461E-1,-2.0137432E-1,-7.0112664E-1,-8.8233143E-1,-7.4843365E-1,-5.5621153E-1,9.888179E-2,-4.6629685E-1,-7.8186625E-1,-4.0694112E-1,-9.5620936E-1,-9.82721E-1,-8.277229E-1,1.7140675E-1,-6.671905E-1,-6.159204E-1,1.1693427E-1,-4.8999348E-1,-1.0117695E0,-9.0964913E-1,-7.956781E-1,-7.696718E-1,-3.7447613E-1,1.4510459E-1,-6.229199E-1,-6.4453924E-1,5.74636E-1,-8.784566E-1,-3.2957956E-1,-8.2148355E-1,-3.1575352E-1,-6.369914E-1,5.5156785E-1,-9.803286E-1,-9.128628E-1,-7.527645E-1,-1.0533066E0,-2.4925837E-1,-8.4333384E-1,1.0254486E0,-5.9301573E-1,-6.8507373E-1,5.216465E-1,-2.4551208E-1,-9.80487E-1,-8.0056965E-2,9.7737473E-1,-9.516492E-1,-1.7863852E-1,-1.1369894E0,-4.0023485E-1,-9.6067876E-1,-8.4942853E-1,2.5456893E-1,-8.0313313E-1,-7.7650374E-1,3.9137957E-1,6.8863934E-1,-6.35866E-1,-4.6164426E-1,1.1304739E0,-6.5022784E-1,5.0054836E-1,-8.1130856E-1,3.982786E-1,2.8190124E-1,1.4580455E0,-9.707202E-1,-1.5546937E-1,6.620268E-1,-4.3288854E-1,-8.337206E-1,1.4578928E-1,-9.3993765E-1,1.0459361E-2,2.8389428E-2,-9.339548E-1,-9.818043E-1,-3.4036058E-1,-3.1426892E-1,-9.1877913E-1,2.5110832E-1,-8.017164E-1,-3.445689E-1,-1.0623716E0,4.2947602E-1,-8.824792E-1,-3.7805042E-1,-8.553958E-1,-1.3148096E-1,1.6914499E0,-7.468982E-1,-8.187353E-2,-7.727127E-1,-4.1815314E-1],"categories":[],"categories_nodes":[],"categories_segments":[],"categories_sizes":[],"default_left":[1,1,1,1,1,1,1,1,1,1,1,1,0,1,1,1,1,1,1,1,1,1,1,1,1,1,1,1,1,1,1,1,1,1,1,1,1,1,1,1,1,1,1,1,1,1,0,1,1,1,1,1,1,1,1,1,0,0,0,0,0,0,0,0,0,0,0,0,0,0,0,0,0,0,0,0,0,0,0,0,0,0,0,0,0,0,0,0,0,0,0,0,0,0,0,0,0,0,0,0,0,0,0,0,0,0,0,0,0],"id":5,"left_children":[1,3,5,7,9,11,13,15,17,19,21,23,-1,25,27,29,31,33,35,37,39,41,43,45,47,49,51,53,55,57,59,61,63,65,67,69,71,73,75,77,79,81,83,85,87,89,-1,91,93,95,97,99,101,103,105,107,-1,-1,-1,-1,-1,-1,-1,-1,-1,-1,-1,-1,-1,-1,-1,-1,-1,-1,-1,-1,-1,-1,-1,-1,-1,-1,-1,-1,-1,-1,-1,-1,-1,-1,-1,-1,-1,-1,-1,-1,-1,-1,-1,-1,-1,-1,-1,-1,-1,-1,-1,-1,-1],"loss_changes":[2.866626E1,1.1440308E1,8.883301E0,6.3999634E0,5.2832184E0,1.3560791E0,5.3522644E0,4.4745903E0,4.8618164E0,7.831455E0,4.4852524E0,2.0579834E0,0E0,1.1985779E0,3.6745262E0,3.9370942E0,3.0714378E0,1.2761841E0,3.5993042E0,4.2189484E0,8.739367E0,3.6524944E0,2.9450226E0,2.5325537E0,8.5913086E-1,1.1926956E0,2.0453644E0,4.5667777E0,3.1194038E0,1.4988308E0,3.0291002E0,4.763091E0,1.1583214E0,1.1366577E0,1.8525543E0,3.9704285E0,8.288981E0,5.5894513E0,2.803522E0,2.0109167E0,3.456996E0,9.713831E-1,5.8319626E0,2.007248E0,3.1084886E0,1.6944671E0,0E0,6.710205E-1,1.8867798E0,1.7853851E0,2.1920013E-1,3.8100634E0,1.0392456E0,2.711445E0,2.4036169E-1,2.6810265E0,0E0,0E0,0E0,0E0,0E0,0E0,0E0,0E0,0E0,0E0,0E0,0E0,0E0,0E0,0E0,0E0,0E0,0E0,0E0,0E0,0E0,0E0,0E0,0E0,0E0,0E0,0E0,0E0,0E0,0E0,0E0,0E0,0E0,0E0,0E0,0E0,0E0,0E0,0E0,0E0,0E0,0E0,0E0,0E0,0E0,0E0,0E0,0E0,0E0,0E0,0E0,0E0,0E0],"parents":[2147483647,0,0,1,1,2,2,3,3,4,4,5,5,6,6,7,7,8,8,9,9,10,10,11,11,13,13,14,14,15,15,16,16,17,17,18,18,19,19,20,20,21,21,22,22,23,23,24,24,25,25,26,26,27,27,28,28,29,29,30,30,31,31,32,32,33,33,34,34,35,35,36,36,37,37,38,38,39,39,40,40,41,41,42,42,43,43,44,44,45,45,47,47,48,48,49,49,50,50,51,51,52,52,53,53,54,54,55,55],"right_children":[2,4,6,8,10,12,14,16,18,20,22,24,-1,26,28,30,32,34,36,38,40,42,44,46,48,50,52,54,56,58,60,62,64,66,68,70,72,74,76,78,80,82,84,86,88,90,-1,92,94,96,98,100,102,104,106,108,-1,-1,-1,-1,-1,-1,-1,-1,-1,-1,-1,-1,-1,-1,-1,-1,-1,-1,-1,-1,-1,-1,-1,-1,-1,-1,-1,-1,-1,-1,-1,-1,-1,-1,-1,-1,-1,-1,-1,-1,-1,-1,-1,-1,-1,-1,-1,-1,-1,-1,-1,-1,-1],"split_conditions":[6.895476E2,5E-1,5E-1,5.848116E2,3.85E1,7.7388403E2,9.160233E-1,4.25E1,8.945539E-1,1.5E0,6.309615E2,1.103153E-1,-3.096248E-1,1.9493064E-1,9.1770613E-1,2.280299E-1,2.7818606E5,3.0026874E-1,3.832019E-1,1.4064178E5,8.368047E-1,1.7328371E-1,9.5892143E-1,9.4118655E-1,2.6247528E-1,7.1496594E2,1.9886702E-1,2.1555755E5,1.175E2,1.9711816E-1,5.8231104E2,1.9505653E5,1.025E2,8.2934463E-1,3.0069762E-1,6.8929803E2,3.9617985E-1,2.7193683E-1,3.75E1,3.3858797E-1,3.05E1,2.5E0,1.8726474E-1,2.5E0,1.983355E-1,2.311144E5,1.6547036E-1,7.734452E2,2.6342714E-1,1.1460726E-1,8.8486516E4,1.45E1,9.4024875E4,7.95E1,7.545729E2,2.9978108E-1,1.5649396E-1,-7.365363E-2,-2.9414612E-1,-2.401709E-2,2.9321244E-1,-2.8549477E-1,-5.3591557E-2,-3.4109682E-1,-1.2007046E-1,-2.8820363E-1,-2.5482857E-1,7.637069E-2,-2.4093994E-1,-2.3295113E-1,1.1741387E-1,2.0659181E-1,-1.9075981E-1,-1.3849328E-1,3.3914217E-1,-1.9506836E-1,1.5016451E-1,-2.4339257E-1,1.1948358E-1,8.457038E-2,4.3741366E-1,-2.9121608E-1,-4.6640813E-2,1.9860806E-1,-1.2986657E-1,-2.501162E-1,4.3736786E-2,-2.8198132E-1,3.1378083E-3,8.5168285E-3,-2.8018644E-1,-2.945413E-1,-1.0210818E-1,-9.428068E-2,-2.7563375E-1,7.53325E-2,-2.4051492E-1,-1.03370674E-1,-3.187115E-1,1.2884282E-1,-2.6474378E-1,-1.1341513E-1,-2.5661874E-1,-3.944429E-2,5.0743496E-1,-2.2406946E-1,-2.4562059E-2,-2.3181382E-1,-1.2544595E-1],"split_indices":[0,7,7,0,3,0,2,3,2,8,0,1,0,1,2,1,4,1,1,4,2,1,2,2,1,0,1,4,3,1,0,4,3,2,1,0,1,1,3,1,3,8,1,7,1,4,0,0,1,1,4,6,4,3,0,1,0,0,0,0,0,0,0,0,0,0,0,0,0,0,0,0,0,0,0,0,0,0,0,0,0,0,0,0,0,0,0,0,0,0,0,0,0,0,0,0,0,0,0,0,0,0,0,0,0,0,0,0,0],"split_type":[0,0,0,0,0,0,0,0,0,0,0,0,0,0,0,0,0,0,0,0,0,0,0,0,0,0,0,0,0,0,0,0,0,0,0,0,0,0,0,0,0,0,0,0,0,0,0,0,0,0,0,0,0,0,0,0,0,0,0,0,0,0,0,0,0,0,0,0,0,0,0,0,0,0,0,0,0,0,0,0,0,0,0,0,0,0,0,0,0,0,0,0,0,0,0,0,0,0,0,0,0,0,0,0,0,0,0,0,0],"sum_hessian":[4.4327505E3,1.7654531E3,2.6672976E3,1.4140571E3,3.5139594E2,2.1632131E3,5.040845E2,8.167996E1,1.3323772E3,1.0991015E2,2.4148578E2,1.685556E3,4.7765704E2,3.7010544E2,1.3397908E2,2.829115E1,5.3388813E1,8.438943E2,4.8848294E2,8.7247925E1,2.266223E1,6.89567E1,1.7252908E2,8.8918705E0,1.6766642E3,1.2132841E2,2.4877702E2,5.063687E0,1.2891539E2,1.1881897E1,1.6409252E1,3.3319836E1,2.006898E1,6.344006E2,2.0949373E2,4.6123013E2,2.725279E1,7.476023E0,7.97719E1,8.704955E0,1.39572735E1,1.5824734E1,5.3131966E1,1.58311E2,1.4218074E1,7.4413247E0,1.450546E0,1.0633625E3,6.1330164E2,3.1234861E1,9.009355E1,6.98313E0,2.4179388E2,2.2303674E0,2.8333197E0,1.2742236E2,1.4930245E0,6.7237954E0,5.158101E0,1.4090336E1,2.318916E0,1.2592325E1,2.0727509E1,1.5944824E1,4.124155E0,3.3531183E2,2.990887E2,1.2429575E0,2.0825078E2,4.588613E2,2.3688629E0,5.055739E0,2.2197052E1,4.955894E0,2.5201292E0,7.8290146E1,1.4817547E0,7.6961727E0,1.0087827E0,1.1474186E1,2.4830873E0,1.3729944E1,2.0947895E0,4.5028973E0,4.862907E1,1.5646956E2,1.8414464E0,4.2344346E0,9.98364E0,2.5753515E0,4.865973E0,1.0603832E3,2.979308E0,6.532028E0,6.067696E2,1.2602749E0,2.9974586E1,1.6304446E0,8.8463104E1,3.5257363E0,3.457394E0,6.9271226E0,2.3486676E2,1.108077E0,1.1222903E0,1.8232005E0,1.0101192E0,9.449996E1,3.29224E1],"tree_param":{"num_deleted":"0","num_feature":"9","num_nodes":"109","size_leaf_vector":"0"}},{"base_weights":[-7.925712E-1,-6.3989466E-1,-8.624425E-1,-6.8517023E-1,-4.7112387E-1,-9.363615E-1,-8.240982E-1,-5.904703E-1,-7.476028E-1,-3.4882537E-1,-6.378065E-1,-8.635774E-2,-9.373139E-1,-8.596066E-1,-6.737806E-1,-7.325854E-1,-4.9299994E-1,-7.530653E-1,2.2464198E-1,-5.388556E-1,-1.0949255E-1,-1.7082006E-1,-7.280941E-1,-8.045304E-1,-9.49251E-1,-7.797259E-1,-8.998002E-1,-8.639423E-1,-5.903407E-1,-7.435459E-1,3.6895448E-1,-5.4995584E-1,-1.052392E-1,-7.5610536E-1,4.0370816E-1,8.748946E-1,-6.293634E-1,-9.472698E-1,-3.9784342E-1,-1.7426765E-1,1.0266336E0,1.7556138E0,-4.024059E-1,-2.1829696E-1,-8.330351E-1,-8.3981264E-1,7.858993E-1,-9.782815E-1,-8.887798E-1,-8.458209E-1,-6.527093E-1,-9.028227E-1,3.5819784E-1,9.964583E-2,-8.8952744E-1,-6.323748E-1,-2.242135E-1,-7.534379E-1,2.1238333E-1,-6.270146E-1,-1.9683199E-1,1.2390162E0,-2.2766283E-1,-7.735556E-1,-4.8740435E-1,-2.0374426E-1,-1.03609E0,-5.726998E-1,2.0007208E-2,-2.9915798E-1,2.9659504E-1,1.9180225E0,-5.955482E-1,1.1469052E0,-6.9584435E-1,-5.973649E-1,5.347049E-1,-6.8569535E-1,-1.0443131E0,-5.994928E-1,-9.598784E-1,-4.1128844E-1,-9.797482E-1,-8.967356E-1,-3.6374682E-1,-3.5104224E-1,-8.5216534E-1,8.756938E-1,-6.78589E-1,-1.610819E-1,-9.0455204E-1,-6.4904433E-1,9.180843E-1,-7.348586E-1,-1.0536345E0,-2.5654784E-1,-6.697991E-1,-5.9807676E-1,3.1280005E-1],"categories":[],"categories_nodes":[],"categories_segments":[],"categories_sizes":[],"default_left":[1,1,1,1,1,1,1,1,1,1,1,0,1,1,1,1,1,1,1,1,1,1,1,1,1,1,1,1,1,1,0,1,1,1,0,0,0,1,1,1,1,0,1,1,1,1,0,1,1,1,1,1,0,1,1,1,1,0,0,0,0,0,0,0,0,0,0,0,0,0,0,0,0,0,0,0,0,0,0,0,0,0,0,0,0,0,0,0,0,0,0,0,0,0,0,0,0,0,0],"id":6,"left_children":[1,3,5,7,9,11,13,15,17,19,21,-1,23,25,27,29,31,33,35,37,39,41,43,45,47,49,51,53,55,57,-1,59,61,63,-1,-1,-1,65,67,69,71,-1,73,75,77,79,-1,81,83,85,87,89,-1,91,93,95,97,-1,-1,-1,-1,-1,-1,-1,-1,-1,-1,-1,-1,-1,-1,-1,-1,-1,-1,-1,-1,-1,-1,-1,-1,-1,-1,-1,-1,-1,-1,-1,-1,-1,-1,-1,-1,-1,-1,-1,-1,-1,-1],"loss_changes":[3.817627E1,8.416321E0,6.279297E0,4.8771057E0,4.7741966E0,6.010132E-1,8.208374E0,4.655716E0,3.0285034E0,6.471451E0,4.1984825E0,0E0,5.698242E-1,3.562622E0,4.555069E0,2.0284348E0,4.7542915E0,2.1887817E0,2.6487455E0,4.217943E0,4.94809E0,8.700134E0,4.39814E0,4.9220657E0,4.758911E-1,3.2431946E0,3.6582642E0,2.435524E0,3.3213196E0,1.5234528E0,0E0,5.039871E0,5.0780005E0,2.1294556E0,0E0,0E0,0E0,1.0933552E0,4.4705772E0,3.7443862E0,6.4065924E0,0E0,8.439591E0,4.8776913E0,1.4829216E0,1.5825233E0,0E0,1.9348145E-2,7.57782E-1,6.2364197E-1,6.887726E0,9.770508E-1,0E0,2.6556525E0,1.5820389E0,2.6594925E0,5.150788E0,0E0,0E0,0E0,0E0,0E0,0E0,0E0,0E0,0E0,0E0,0E0,0E0,0E0,0E0,0E0,0E0,0E0,0E0,0E0,0E0,0E0,0E0,0E0,0E0,0E0,0E0,0E0,0E0,0E0,0E0,0E0,0E0,0E0,0E0,0E0,0E0,0E0,0E0,0E0,0E0,0E0,0E0],"parents":[2147483647,0,0,1,1,2,2,3,3,4,4,5,5,6,6,7,7,8,8,9,9,10,10,12,12,13,13,14,14,15,15,16,16,17,17,18,18,19,19,20,20,21,21,22,22,23,23,24,24,25,25,26,26,27,27,28,28,29,29,31,31,32,32,33,33,37,37,38,38,39,39,40,40,42,42,43,43,44,44,45,45,47,47,48,48,49,49,50,50,51,51,53,53,54,54,55,55,56,56],"right_children":[2,4,6,8,10,12,14,16,18,20,22,-1,24,26,28,30,32,34,36,38,40,42,44,46,48,50,52,54,56,58,-1,60,62,64,-1,-1,-1,66,68,70,72,-1,74,76,78,80,-1,82,84,86,88,90,-1,92,94,96,98,-1,-1,-1,-1,-1,-1,-1,-1,-1,-1,-1,-1,-1,-1,-1,-1,-1,-1,-1,-1,-1,-1,-1,-1,-1,-1,-1,-1,-1,-1,-1,-1,-1,-1,-1,-1,-1,-1,-1,-1,-1,-1],"split_conditions":[6.7452E2,5E-1,8.3127207E-1,6.349685E2,6.85E1,3.397552E-2,5E-1,8.4552824E-1,4.7126728E-1,8.848755E-1,6.062745E2,-2.5907325E-2,6.8480383E2,7.120365E2,1.9443387E-1,6.347637E2,7.618019E-2,6.744453E2,4.9525386E-1,1.65E1,3.9884713E-1,2.5E0,7.837573E-1,6.846931E2,6.910592E-2,2.671412E-1,9.2932865E-2,9.1249625E4,1.5E0,9.0913974E-2,1.1068635E-1,1.005E2,8.566543E-1,3.7124294E5,1.2111245E-1,2.624684E-1,-1.8880904E-1,1.5127254E-1,6.593511E2,2.35E1,6.360851E2,5.2668417E-1,5.1005032E-2,6.979272E-2,2.6922292E-1,6.0992062E-2,2.357698E-1,1.0879413E-1,4.1343888E5,6.751339E2,8.3359027E-1,1.0633757E-1,1.0745936E-1,6.61204E-2,7.34568E2,1.4571275E5,9.2219776E-1,-2.2603138E-1,6.3715E-2,-1.8810438E-1,-5.90496E-2,3.7170488E-1,-6.8298854E-2,-2.3206668E-1,-1.4622131E-1,-6.112328E-2,-3.1082702E-1,-1.7180994E-1,6.0021626E-3,-8.97474E-2,8.8978514E-2,5.754068E-1,-1.7866448E-1,3.4407157E-1,-2.0875332E-1,-1.7920947E-1,1.6041148E-1,-2.0570861E-1,-3.1329393E-1,-1.7984784E-1,-2.8796354E-1,-1.2338654E-1,-2.9392448E-1,-2.690207E-1,-1.0912405E-1,-1.05312675E-1,-2.5564963E-1,2.6270816E-1,-2.035767E-1,-4.832457E-2,-2.713656E-1,-1.9471331E-1,2.7542531E-1,-2.2045758E-1,-3.1609038E-1,-7.6964356E-2,-2.0093973E-1,-1.7942303E-1,9.384002E-2],"split_indices":[0,7,2,0,3,5,7,2,1,2,0,0,0,0,1,0,5,0,1,3,1,6,2,0,5,1,5,4,7,5,0,3,2,4,0,0,0,1,0,6,0,0,5,5,1,5,0,1,4,0,2,1,0,5,0,4,2,0,0,0,0,0,0,0,0,0,0,0,0,0,0,0,0,0,0,0,0,0,0,0,0,0,0,0,0,0,0,0,0,0,0,0,0,0,0,0,0,0,0],"split_type":[0,0,0,0,0,0,0,0,0,0,0,0,0,0,0,0,0,0,0,0,0,0,0,0,0,0,0,0,0,0,0,0,0,0,0,0,0,0,0,0,0,0,0,0,0,0,0,0,0,0,0,0,0,0,0,0,0,0,0,0,0,0,0,0,0,0,0,0,0,0,0,0,0,0,0,0,0,0,0,0,0,0,0,0,0,0,0,0,0,0,0,0,0,0,0,0,0,0,0],"sum_hessian":[3.6294045E3,1.1426803E3,2.4867244E3,8.9856525E2,2.4411504E2,8.413581E2,1.6453662E3,3.6117682E2,5.373884E2,1.42588E2,1.0152702E2,1.0442728E0,8.403138E2,1.327146E3,3.1822015E2,1.442864E2,2.1689043E2,5.346102E2,2.778221E0,7.87829E1,6.3805107E1,1.69176E1,8.460943E1,7.4953636E1,7.6536017E2,4.5107626E2,8.7606976E2,9.419453E1,2.2402562E2,1.4318668E2,1.0997324E0,1.8874803E2,2.8142385E1,5.335544E2,1.0558486E0,1.5633795E0,1.2148412E0,1.8752457E1,6.003044E1,6.1164486E1,2.6406195E0,1.1092802E0,1.580832E1,1.4969363E1,6.964006E1,7.378866E1,1.1649766E0,5.0685535E2,2.5850482E2,2.929672E2,1.5810905E2,8.7425165E2,1.8181399E0,2.3614883E0,9.183304E1,2.0030222E2,2.3723406E1,1.4192981E2,1.2568679E0,1.5430087E2,3.444717E1,1.5877371E0,2.6554647E1,4.9925256E2,3.4301815E1,2.352582E0,1.6399874E1,4.205941E1,1.797103E1,4.863052E1,1.2533968E1,1.5864778E0,1.0541418E0,2.0541599E0,1.375416E1,1.0094426E1,4.8749366E0,4.3529312E1,2.611075E1,2.6579994E1,4.7208668E1,2.033834E0,5.048215E2,2.5394879E2,4.556025E0,4.4222627E0,2.8854492E2,2.0858476E0,1.5602321E2,2.252599E0,8.71999E2,1.3413876E0,1.0201006E0,5.009605E1,4.1736988E1,1.8850855E1,1.8145135E2,1.3919255E1,9.804151E0],"tree_param":{"num_deleted":"0","num_feature":"9","num_nodes":"99","size_leaf_vector":"0"}},{"base_weights":[-7.055073E-1,-7.4906194E-1,-5.3897065E-1,-7.848385E-1,-6.750524E-1,-5.8039623E-1,-2.1797244E-1,-8.5708195E-1,-7.5473684E-1,-7.3707545E-1,-5.8117074E-1,-6.3642484E-1,-4.0580583E-1,-4.3522644E-1,1.3303159E-1,-8.7733024E-1,-4.5847756E-1,7.788609E-1,-7.5779426E-1,-5.8396894E-1,-7.8314406E-1,-7.3244476E-1,-5.050531E-1,-7.54256E-1,-5.75601E-1,9.2867965E-1,-4.6276262E-1,-2.4465285E-1,-7.9814756E-1,-7.662488E-1,4.143103E-1,-8.902554E-1,-5.47923E-1,-7.8744084E-1,3.2788616E-1,-2.7259922E-1,-7.613407E-1,-2.8819755E-1,-7.250991E-1,4.3699643E-1,-7.8796476E-1,3.8651162E-1,-7.5600797E-1,-5.573493E-1,-5.5863E-2,-3.21484E-2,-7.739371E-1,3.911051E-1,-5.8790827E-1,-3.2430393E-1,1.5030609E0,-4.9511918E-1,2.5879815E-1,-3.2829657E-1,8.351876E-1,-8.953219E-1,1.9264196E-1,-1.5275143E-1,-9.6149546E-1,1.6562313E0,1.7230143E-1,-8.655768E-1,-1.0399047E0,-7.593155E-1,4.1824198E-1,-9.354859E-1,-4.6934422E-2,1.1427459E0,-6.015303E-1,-5.882177E-1,7.318095E-1,-8.5128427E-1,-7.386571E-1,-4.136805E-1,7.571082E-1,-2.1243413E-1,-7.9571277E-1,-8.3217686E-1,-6.846527E-1,4.4118184E-1,-7.726114E-1,-5.828387E-1,1.7184979E-1,9.770016E-1,-2.827676E-1,-4.8771358E-1,6.361718E-1,4.9344122E-2,-7.846342E-1,-6.487777E-1,1.2095277E0,-6.1737376E-1,-2.4567679E-1,5.291137E-1,1.8386372E0,-3.6109057E-1,-7.0155007E-1,-5.445554E-1,1.7312471E0,-6.287749E-1,-5.3749643E-2,-2.4489194E-1,-9.4549525E-1,2.8615534E-1,2.162254E0,-1.931991E-1,7.045393E-1],"categories":[],"categories_nodes":[],"categories_segments":[],"categories_sizes":[],"default_left":[1,1,1,1,1,1,1,1,1,1,1,1,1,1,1,1,1,0,1,1,1,1,1,1,1,1,1,1,1,1,1,1,1,1,1,1,1,1,1,0,1,0,1,1,1,1,1,1,1,0,1,1,1,1,0,1,0,0,0,1,1,0,0,0,0,0,0,0,0,0,0,0,0,0,0,0,0,0,0,0,0,0,0,0,0,0,0,0,0,0,0,0,0,0,0,0,0,0,0,0,0,0,0,0,0,0,0],"id":7,"left_children":[1,3,5,7,9,11,13,15,17,19,21,23,25,27,29,31,33,-1,35,37,39,41,43,45,47,49,51,53,55,57,59,61,63,65,67,69,71,73,75,-1,77,-1,79,81,83,85,87,89,91,-1,93,95,97,99,-1,101,-1,-1,-1,103,105,-1,-1,-1,-1,-1,-1,-1,-1,-1,-1,-1,-1,-1,-1,-1,-1,-1,-1,-1,-1,-1,-1,-1,-1,-1,-1,-1,-1,-1,-1,-1,-1,-1,-1,-1,-1,-1,-1,-1,-1,-1,-1,-1,-1,-1,-1],"loss_changes":[2.1204102E1,5.7158203E0,8.133179E0,2.7977295E0,4.089142E0,5.1174164E0,5.5940943E0,3.2984314E0,5.8721924E0,2.8116302E0,3.2384567E0,2.5349274E0,1.0787455E1,2.92243E0,7.5319824E0,1.3653564E0,6.533873E0,0E0,1.7278442E0,4.4297676E0,2.422577E0,2.9994469E0,4.9417915E0,1.9337997E0,3.5309753E0,4.741286E0,3.195036E0,3.0740647E0,1.6242332E0,7.091608E-1,6.439627E0,6.4071655E-1,4.2050576E0,1.8634644E0,6.6412106E0,3.5115342E0,1.6481323E0,5.239456E0,2.5305328E0,0E0,1.0393982E0,0E0,2.3464737E0,3.6225128E0,5.7105293E0,1.7412369E0,1.2198639E0,4.2642336E0,2.6150436E0,0E0,4.0974712E-1,3.2346249E0,8.388436E0,2.3988416E0,0E0,2.2236156E-1,0E0,0E0,0E0,1.8306389E0,3.9960873E0,0E0,0E0,0E0,0E0,0E0,0E0,0E0,0E0,0E0,0E0,0E0,0E0,0E0,0E0,0E0,0E0,0E0,0E0,0E0,0E0,0E0,0E0,0E0,0E0,0E0,0E0,0E0,0E0,0E0,0E0,0E0,0E0,0E0,0E0,0E0,0E0,0E0,0E0,0E0,0E0,0E0,0E0,0E0,0E0,0E0,0E0],"parents":[2147483647,0,0,1,1,2,2,3,3,4,4,5,5,6,6,7,7,8,8,9,9,10,10,11,11,12,12,13,13,14,14,15,15,16,16,18,18,19,19,20,20,21,21,22,22,23,23,24,24,25,25,26,26,27,27,28,28,29,29,30,30,31,31,32,32,33,33,34,34,35,35,36,36,37,37,38,38,40,40,42,42,43,43,44,44,45,45,46,46,47,47,48,48,50,50,51,51,52,52,53,53,55,55,59,59,60,60],"right_children":[2,4,6,8,10,12,14,16,18,20,22,24,26,28,30,32,34,-1,36,38,40,42,44,46,48,50,52,54,56,58,60,62,64,66,68,70,72,74,76,-1,78,-1,80,82,84,86,88,90,92,-1,94,96,98,100,-1,102,-1,-1,-1,104,106,-1,-1,-1,-1,-1,-1,-1,-1,-1,-1,-1,-1,-1,-1,-1,-1,-1,-1,-1,-1,-1,-1,-1,-1,-1,-1,-1,-1,-1,-1,-1,-1,-1,-1,-1,-1,-1,-1,-1,-1,-1,-1,-1,-1,-1,-1],"split_conditions":[5E-1,2.7414167E-1,1.5E0,8.182053E-1,6.746549E-2,9.223856E-1,9.0239865E-1,3.7882944E5,8.185707E-1,6.5E0,8.283801E-1,1.9818619E-1,9.240388E-1,7.95E1,5.6772374E-2,2.661261E-1,2.15E1,2.3365828E-1,1.07661836E-1,5.6384504E-2,2.744034E-1,2.7590808E-1,4.1214442E-1,8.9241234E4,1.9982904E-1,2.3505844E5,3.9986435E-1,7.75E1,2.5E0,1.9680916E5,9.1325444E-1,1.045E2,9.95E1,1.5E0,4.1118753E5,1.5E0,1.813381E5,5.578333E-2,2.8376615E-1,1.3109894E-1,9.1064215E-1,1.1595349E-1,6.758748E-2,8.732714E-2,6.935481E-2,7.486133E4,1.07240975E-1,2.484609E5,3.5903575E5,-9.729118E-2,9.231632E-1,2.704483E5,8E1,2.2921692E-1,2.505563E-1,7.1850455E-1,5.779259E-2,-4.582543E-2,-2.8844866E-1,9.0726876E-1,1.95E1,-2.5967306E-1,-3.1197143E-1,-2.2779466E-1,1.254726E-1,-2.806458E-1,-1.4080327E-2,3.4282377E-1,-1.804591E-1,-1.764653E-1,2.1954286E-1,-2.5538528E-1,-2.2159715E-1,-1.2410415E-1,2.2713247E-1,-6.373024E-2,-2.3871385E-1,-2.4965307E-1,-2.0539582E-1,1.3235456E-1,-2.3178342E-1,-1.7485163E-1,5.1554937E-2,2.931005E-1,-8.4830284E-2,-1.4631408E-1,1.9085155E-1,1.4803237E-2,-2.3539026E-1,-1.9463332E-1,3.6285833E-1,-1.8521214E-1,-7.3703036E-2,1.5873411E-1,5.515912E-1,-1.0832717E-1,-2.1046503E-1,-1.6336663E-1,5.1937413E-1,-1.8863247E-1,-1.6124893E-2,-7.346758E-2,-2.8364858E-1,8.58466E-2,6.486763E-1,-5.795973E-2,2.113618E-1],"split_indices":[7,1,7,2,5,2,2,4,2,6,2,1,2,3,5,1,6,0,1,5,1,1,1,4,1,4,1,3,7,4,2,3,3,8,4,8,4,5,1,0,2,0,5,5,5,4,1,4,4,0,2,4,3,1,0,2,0,0,0,2,6,0,0,0,0,0,0,0,0,0,0,0,0,0,0,0,0,0,0,0,0,0,0,0,0,0,0,0,0,0,0,0,0,0,0,0,0,0,0,0,0,0,0,0,0,0,0],"split_type":[0,0,0,0,0,0,0,0,0,0,0,0,0,0,0,0,0,0,0,0,0,0,0,0,0,0,0,0,0,0,0,0,0,0,0,0,0,0,0,0,0,0,0,0,0,0,0,0,0,0,0,0,0,0,0,0,0,0,0,0,0,0,0,0,0,0,0,0,0,0,0,0,0,0,0,0,0,0,0,0,0,0,0,0,0,0,0,0,0,0,0,0,0,0,0,0,0,0,0,0,0,0,0,0,0,0,0],"sum_hessian":[2.9779685E3,2.3578237E3,6.201447E2,1.5829933E3,7.748305E2,5.485456E2,7.1599144E1,4.575088E2,1.1254845E3,4.6245667E2,3.1237387E2,4.132745E2,1.3527109E2,4.4077454E1,2.7521692E1,4.3424884E2,2.325996E1,1.7344781E0,1.12375E3,1.1012818E2,3.523285E2,1.0167847E2,2.106954E2,1.3681961E2,2.764549E2,4.91065E0,1.3036044E2,2.9998865E1,1.40785885E1,6.146491E0,2.13752E1,4.1621494E2,1.8033884E1,1.639852E1,6.8614397E0,8.719162E0,1.1150308E3,3.6556824E1,7.357136E1,1.033736E0,3.5129474E2,1.7793314E0,9.989913E1,1.8850789E2,2.2187511E1,3.6999645E0,1.3311964E2,3.0884354E0,2.7336646E2,1.6803774E0,3.2302723E0,1.25065994E2,5.294441E0,2.8488169E1,1.5106978E0,1.2908872E1,1.169717E0,1.9141778E0,4.232313E0,2.532981E0,1.8842218E1,3.6311746E2,5.3097485E1,1.4972141E1,3.0617425E0,1.3446861E1,2.9516578E0,3.533733E0,3.327707E0,6.9497004E0,1.7694616E0,2.1721458E2,8.978162E2,3.317822E1,3.3786054E0,9.392068E0,6.417929E1,2.4107315E2,1.10221596E2,1.0167189E0,9.8882416E1,1.8233502E2,6.1728663E0,3.4009018E0,1.878661E1,2.3608882E0,1.3390763E0,1.6611246E0,1.3145851E2,1.4514784E0,1.6369569E0,2.5095567E2,2.2410788E1,1.4880934E0,1.742179E0,7.749822E1,4.7567772E1,3.833236E0,1.4612055E0,1.298571E1,1.5502458E1,1.3456211E0,1.1563251E1,1.1054451E0,1.4275359E0,1.1548555E1,7.293664E0],"tree_param":{"num_deleted":"0","num_feature":"9","num_nodes":"107","size_leaf_vector":"0"}},{"base_weights":[-6.046039E-1,-4.330874E-1,-7.2540367E-1,-2.8262633E-1,-5.006769E-1,-7.658784E-1,-5.6869155E-1,-3.7579262E-1,-7.988732E-3,-5.168921E-1,3.5304602E-2,-7.20552E-1,-8.3492094E-1,-6.968365E-1,-4.660684E-1,-3.8948527E-1,1.4043758E0,-1.0713655E-1,7.5590616E-1,-5.51269E-1,-3.4242332E-1,-4.6628624E-1,4.3373784E-1,-7.229042E-1,4.4175944E-1,-3.828593E-1,-8.484583E-1,-7.180966E-1,1.2059282E-1,1.4385848E0,-4.8590055E-1,-2.8076586E-1,-5.097076E-1,-4.4530287E-1,1.4739603E-1,1.6583768E0,1.9041882E-1,-5.955431E-1,-3.9320636E-1,-4.692212E-1,7.9139166E-2,-6.7379814E-1,5.879177E-1,7.686974E-1,-6.0553026E-1,-6.140831E-1,-7.546921E-1,-8.138055E-1,1.5954575E-1,-8.981856E-1,-7.208801E-1,4.3642306E-1,-7.307405E-1,1.1768808E0,-7.0724E-1,-7.703953E-1,-4.1729158E-1,7.8829765E-1,-3.0041054E-1,-1.7102942E-1,-5.7939166E-1,-6.1987174E-1,4.4290966E-1,3.0099693E-1,-7.102745E-1,2.167807E0,2.8845504E-1,-4.4509053E-1,1.0234509E0,-4.5091406E-1,-6.46992E-1,6.0507494E-1,-4.5893008E-1,6.304332E-1,-5.167524E-1,-6.497444E-1,3.2559046E-1,-2.451968E-1,-9.236012E-1,-3.2361785E-1,1.0048456E0,-1.4063884E-1,-7.300952E-1,-6.74221E-1,-2.4406318E-1,-7.617046E-1,-2.1564882E-1,-3.0233052E-2,-9.1518694E-1,8.9454067E-1,-5.8136094E-1,-9.0081096E-1,-6.602062E-2,6.476248E-1,-7.4750125E-1,-5.703439E-1,-8.248461E-1,-1.5146792E-2,-9.027351E-1,9.348339E-1,-4.34113E-1],"categories":[],"categories_nodes":[],"categories_segments":[],"categories_sizes":[],"default_left":[1,1,1,1,1,1,1,1,1,1,1,1,1,1,1,1,0,1,1,1,1,1,1,1,0,1,1,1,1,0,1,1,1,1,1,1,1,1,1,1,1,1,0,1,1,1,1,1,1,1,1,0,1,0,0,1,1,0,0,0,0,0,0,0,0,0,0,0,0,0,0,0,0,0,0,0,0,0,0,0,0,0,0,0,0,0,0,0,0,0,0,0,0,0,0,0,0,0,0,0,0],"id":8,"left_children":[1,3,5,7,9,11,13,15,17,19,21,23,25,27,29,31,-1,33,35,37,39,41,43,45,-1,47,49,51,53,-1,55,57,59,61,63,65,67,69,71,73,75,77,-1,79,81,83,85,87,89,91,93,-1,95,-1,-1,97,99,-1,-1,-1,-1,-1,-1,-1,-1,-1,-1,-1,-1,-1,-1,-1,-1,-1,-1,-1,-1,-1,-1,-1,-1,-1,-1,-1,-1,-1,-1,-1,-1,-1,-1,-1,-1,-1,-1,-1,-1,-1,-1,-1,-1],"loss_changes":[5.100592E1,1.0293274E1,8.7734375E0,8.1938095E0,6.160446E0,3.0002441E0,3.6453247E0,6.3771286E0,6.304267E0,3.9258728E0,4.5368047E0,2.238922E0,2.4281006E0,2.384636E0,7.145443E0,2.9695053E0,0E0,6.4010744E0,4.564931E0,3.7650452E0,6.214431E0,2.6019948E0,4.8536205E0,1.961731E0,0E0,3.613067E0,2.1181946E0,2.2023697E0,4.5121408E0,0E0,2.9898949E0,2.909854E0,2.540886E0,5.2142334E0,5.8451657E0,1.8552504E0,4.1662536E0,3.0156555E0,8.675179E0,4.9769306E0,5.165465E0,7.254615E-1,0E0,2.897873E0,1.0763991E-1,3.481762E0,1.8702087E0,6.4502287E-1,4.56818E0,6.1694336E-1,5.12294E0,0E0,1.4616318E0,0E0,0E0,3.162878E0,3.5643349E0,0E0,0E0,0E0,0E0,0E0,0E0,0E0,0E0,0E0,0E0,0E0,0E0,0E0,0E0,0E0,0E0,0E0,0E0,0E0,0E0,0E0,0E0,0E0,0E0,0E0,0E0,0E0,0E0,0E0,0E0,0E0,0E0,0E0,0E0,0E0,0E0,0E0,0E0,0E0,0E0,0E0,0E0,0E0,0E0],"parents":[2147483647,0,0,1,1,2,2,3,3,4,4,5,5,6,6,7,7,8,8,9,9,10,10,11,11,12,12,13,13,14,14,15,15,17,17,18,18,19,19,20,20,21,21,22,22,23,23,25,25,26,26,27,27,28,28,30,30,31,31,32,32,33,33,34,34,35,35,36,36,37,37,38,38,39,39,40,40,41,41,43,43,44,44,45,45,46,46,47,47,48,48,49,49,50,50,52,52,55,55,56,56],"right_children":[2,4,6,8,10,12,14,16,18,20,22,24,26,28,30,32,-1,34,36,38,40,42,44,46,-1,48,50,52,54,-1,56,58,60,62,64,66,68,70,72,74,76,78,-1,80,82,84,86,88,90,92,94,-1,96,-1,-1,98,100,-1,-1,-1,-1,-1,-1,-1,-1,-1,-1,-1,-1,-1,-1,-1,-1,-1,-1,-1,-1,-1,-1,-1,-1,-1,-1,-1,-1,-1,-1,-1,-1,-1,-1,-1,-1,-1,-1,-1,-1,-1,-1,-1,-1],"split_conditions":[6.8711926E2,6.328732E2,5E-1,3.027566E-1,1.5E0,7.485496E2,8.584359E-1,6.3268353E2,2.5E0,3.3077946E-1,1.25E1,7.484343E2,5E-1,8.3913763E2,8.5911095E-1,1.55E1,4.2131275E-1,8.5627604E-1,5.841544E2,9.273759E-1,6.773754E2,2.5E0,1.5E0,2.75E1,1.3252784E-1,8.699416E-1,2.8436205E-1,1.1346568E-1,8.4540125E2,4.3157545E-1,5.6251034E-2,5.1397473E2,5.549645E-2,1.01E2,9.635742E-1,8.9118207E-1,6.1898987E2,3.25E1,9.3004507E-1,3.3308572E-1,8.0894804E-1,2.4012282E-1,1.7637531E-1,5.6958772E-2,1.9077823E-1,9.451271E-1,8.729852E-2,7.5461584E2,9.169135E-1,9.3277305E-2,2.856989E-1,1.3092692E-1,6.2247448E-2,3.5306427E-1,-2.12172E-1,8.8043433E-1,5.64862E-2,2.3648931E-1,-9.012316E-2,-5.130883E-2,-1.738175E-1,-1.8596153E-1,1.3287291E-1,9.0299085E-2,-2.1308236E-1,6.5034217E-1,8.653651E-2,-1.3352716E-1,3.0703527E-1,-1.3527422E-1,-1.9409762E-1,1.8152249E-1,-1.3767903E-1,1.8912996E-1,-1.5502574E-1,-1.9492333E-1,9.767714E-2,-7.3559046E-2,-2.770804E-1,-9.708536E-2,3.014537E-1,-4.2191654E-2,-2.1902858E-1,-2.022663E-1,-7.321896E-2,-2.285114E-1,-6.469465E-2,-9.069916E-3,-2.745561E-1,2.6836222E-1,-1.7440829E-1,-2.702433E-1,-1.9806188E-2,1.9428745E-1,-2.2425039E-1,-1.7110318E-1,-2.4745384E-1,-4.544038E-3,-2.7082056E-1,2.8045017E-1,-1.302339E-1],"split_indices":[0,0,7,1,7,0,2,0,8,1,6,0,6,0,2,6,0,2,0,2,0,7,8,3,0,2,1,1,0,0,5,0,5,3,2,2,0,3,2,1,2,1,0,5,1,2,5,0,2,5,1,0,5,0,0,2,5,0,0,0,0,0,0,0,0,0,0,0,0,0,0,0,0,0,0,0,0,0,0,0,0,0,0,0,0,0,0,0,0,0,0,0,0,0,0,0,0,0,0,0,0],"split_type":[0,0,0,0,0,0,0,0,0,0,0,0,0,0,0,0,0,0,0,0,0,0,0,0,0,0,0,0,0,0,0,0,0,0,0,0,0,0,0,0,0,0,0,0,0,0,0,0,0,0,0,0,0,0,0,0,0,0,0,0,0,0,0,0,0,0,0,0,0,0,0,0,0,0,0,0,0,0,0,0,0,0,0,0,0,0,0,0,0,0,0,0,0,0,0,0,0,0,0,0,0],"sum_hessian":[2.4759402E3,1.0250776E3,1.4508627E3,3.1935104E2,7.057266E2,1.1499684E3,3.008942E2,2.3818304E2,8.1168E1,6.850376E2,2.0689009E1,7.0112054E2,4.488479E2,1.3123346E2,1.6966072E2,2.3714023E2,1.0428214E0,7.260426E1,8.563737E0,5.70473E2,1.14564545E2,9.083463E0,1.1605545E1,7.0008185E2,1.0387067E0,1.3901675E1,4.3494623E2,1.2802524E2,3.208232E0,1.0111727E0,1.6864955E2,1.26279015E2,1.10861206E2,3.0857792E1,4.1746468E1,2.55443E0,6.0093074E0,4.434835E2,1.26989555E2,8.798677E1,2.6577774E1,7.8910227E0,1.1924403E0,8.973654E0,2.6318908E0,1.6286287E2,5.3721893E2,7.4679494E0,6.433726E0,3.0861447E2,1.2633174E2,1.023808E0,1.2700143E2,1.2243544E0,1.9838777E0,3.078158E1,1.3786797E2,1.5725608E0,1.2470645E2,1.9507126E1,9.135408E1,2.6041685E1,4.8161073E0,3.5956112E1,5.7903557E0,1.4374547E0,1.1169753E0,3.6729555E0,2.3363519E0,1.18927765E2,3.2455573E2,7.3372536E0,1.196523E2,3.1374307E0,8.4849335E1,6.3022804E0,2.0275494E1,3.635297E0,4.255726E0,1.5293179E0,7.4443364E0,1.0060883E0,1.6258026E0,1.3938676E2,2.3476118E1,5.299121E2,7.3068194E0,1.0042624E0,6.463687E0,3.125653E0,3.3080726E0,3.0756168E2,1.0527935E0,1.9654787E0,1.24366264E2,4.9571274E1,7.743015E1,4.755714E0,2.6025867E1,1.0235059E0,1.3684447E2],"tree_param":{"num_deleted":"0","num_feature":"9","num_nodes":"101","size_leaf_vector":"0"}},{"base_weights":[-5.255713E-1,-5.7019997E-1,-3.7118116E-1,-6.087715E-1,-4.5870453E-1,-6.0550797E-1,-2.7188691E-1,-7.2151136E-1,-5.692199E-1,-4.6781373E-1,5.3317696E-1,5.113708E-1,-6.2615514E-1,-3.237009E-1,7.4673116E-2,8.6779094E-1,-7.298949E-1,-6.4388055E-1,-4.8359248E-1,8.717081E-1,-4.733762E-1,1.593229E0,-4.1562128E-1,9.0214676E-1,-1.10693485E-1,-8.3645844E-1,-5.4358673E-1,-2.7748534E-1,-6.001142E-1,-4.4116592E-1,3.073665E-1,-1.9869864E-1,-7.460352E-1,7.049989E-1,-6.506125E-1,-1.764015E-2,-5.139004E-1,-4.8559737E-1,-1.364348E-1,-4.882931E-2,-5.7275337E-1,-3.872042E-2,-8.5733175E-1,-5.814305E-1,-2.831648E-2,-4.630226E-1,-2.1179286E-1,-6.528737E-1,3.3045796E-1,5.253217E-1,-6.4831066E-1,7.7352667E-1,1.5895994E-1,-4.2130393E-1,9.523405E-1,-7.740832E-1,-5.2712387E-1,-7.051292E-1,-5.770035E-1,-2.2902401E-1,1.3691137E0,1.1839539E-1,-5.37702E-1,-4.6173435E-1,-7.3487204E-1,-4.5259658E-1,9.580785E-1,-8.7944996E-1,-4.7427345E-2,-6.406497E-1,-2.3557031E-1,-6.1806744E-1,8.850058E-1,-5.330596E-1,4.5592776E-1,1.9251552E-1,-2.431965E-1,-7.914818E-1,-2.7846077E-1,-9.917731E-2,8.8563246E-1,1.9285682E-1,-8.2980263E-1,1.449515E0,-2.7679205E-1,-5.029323E-1,4.4526345E-1],"categories":[],"categories_nodes":[],"categories_segments":[],"categories_sizes":[],"default_left":[1,1,1,1,1,1,1,1,1,1,1,1,1,1,1,0,1,1,1,0,1,0,1,0,0,1,1,1,1,1,1,1,1,0,1,1,1,1,1,0,0,0,1,1,1,1,1,1,0,1,1,1,1,0,0,0,0,0,0,0,0,0,0,0,0,0,0,0,0,0,0,0,0,0,0,0,0,0,0,0,0,0,0,0,0,0,0],"id":9,"left_children":[1,3,5,7,9,11,13,15,17,19,21,23,25,27,29,-1,31,33,35,-1,37,-1,39,-1,-1,41,43,45,47,49,51,53,55,-1,57,59,61,63,65,-1,-1,-1,67,69,71,73,75,77,-1,79,81,83,85,-1,-1,-1,-1,-1,-1,-1,-1,-1,-1,-1,-1,-1,-1,-1,-1,-1,-1,-1,-1,-1,-1,-1,-1,-1,-1,-1,-1,-1,-1,-1,-1,-1,-1],"loss_changes":[1.4413025E1,6.793762E0,1.0976326E1,5.0244446E0,4.105568E0,3.587757E0,6.0958424E0,4.801407E0,5.487549E0,3.5677032E0,5.0385203E0,8.588707E-1,1.9689255E0,3.5935287E0,5.5119534E0,0E0,2.5243835E0,4.831421E0,6.0143356E0,0E0,1.6728439E0,0E0,1.5007824E-1,0E0,0E0,5.911217E-1,1.9935703E0,2.9982204E0,2.243578E0,3.210398E0,2.0532248E0,3.1058114E0,1.4472809E0,0E0,1.5180664E0,8.253045E0,6.090164E0,2.0826645E0,6.0301957E0,0E0,0E0,0E0,6.119633E-1,1.8148193E0,4.912006E0,4.4640017E0,2.4522495E0,1.8255215E0,0E0,7.814249E-1,2.03051E0,5.610834E0,4.984007E0,0E0,0E0,0E0,0E0,0E0,0E0,0E0,0E0,0E0,0E0,0E0,0E0,0E0,0E0,0E0,0E0,0E0,0E0,0E0,0E0,0E0,0E0,0E0,0E0,0E0,0E0,0E0,0E0,0E0,0E0,0E0,0E0,0E0,0E0],"parents":[2147483647,0,0,1,1,2,2,3,3,4,4,5,5,6,6,7,7,8,8,9,9,10,10,11,11,12,12,13,13,14,14,16,16,17,17,18,18,20,20,22,22,25,25,26,26,27,27,28,28,29,29,30,30,31,31,32,32,34,34,35,35,36,36,37,37,38,38,42,42,43,43,44,44,45,45,46,46,47,47,49,49,50,50,51,51,52,52],"right_children":[2,4,6,8,10,12,14,16,18,20,22,24,26,28,30,-1,32,34,36,-1,38,-1,40,-1,-1,42,44,46,48,50,52,54,56,-1,58,60,62,64,66,-1,-1,-1,68,70,72,74,76,78,-1,80,82,84,86,-1,-1,-1,-1,-1,-1,-1,-1,-1,-1,-1,-1,-1,-1,-1,-1,-1,-1,-1,-1,-1,-1,-1,-1,-1,-1,-1,-1,-1,-1,-1,-1,-1,-1],"split_conditions":[5E-1,9.2020667E-1,1.9435552E-1,1.9752966E5,4.6964768E-1,1.07630536E-1,1.5E0,1.0734617E-1,6.599844E-2,9.202931E-1,4.7640038E-1,2.529501E5,5.8714353E-2,2.55E1,8.3509564E-1,2.603373E-1,5E-1,1.9826897E5,6.6702664E-2,2.6151243E-1,2.85E1,4.7796872E-1,6.4809814E-2,2.7064404E-1,-3.3208046E-2,3.9684393E-2,9.6401244E-1,8.147497E-1,3.959125E5,2.45E1,8.6808026E-1,7.756968E-2,3.480751E-1,2.1149968E-1,2.4900101E-1,3.539546E-1,4.5E0,9.810785E-1,7.309486E-2,-1.4648793E-2,-1.7182602E-1,-1.1616127E-2,1.9272797E-1,3.2814888E5,7.25E1,1.115E2,8.311379E-1,9.163108E-1,9.913739E-2,7.640155E-1,7.1850455E-1,6.355697E-2,9.021913E-1,-1.2639119E-1,2.8570217E-1,-2.3222497E-1,-1.5813717E-1,-2.1153878E-1,-1.7310105E-1,-6.8707205E-2,4.1073412E-1,3.5518616E-2,-1.6131061E-1,-1.3852032E-1,-2.2046162E-1,-1.3577898E-1,2.8742355E-1,-2.63835E-1,-1.4228204E-2,-1.9219491E-1,-7.06711E-2,-1.8542024E-1,2.6550174E-1,-1.5991789E-1,1.3677834E-1,5.775466E-2,-7.295895E-2,-2.3744455E-1,-8.3538234E-2,-2.9753193E-2,2.6568976E-1,5.7857048E-2,-2.489408E-1,4.348545E-1,-8.3037615E-2,-1.508797E-1,1.3357905E-1],"split_indices":[7,2,1,4,1,1,7,1,5,2,1,4,5,6,2,0,6,4,5,0,6,0,5,0,0,5,2,2,4,3,2,5,1,0,1,1,3,2,5,0,0,0,1,4,3,3,2,2,0,2,2,5,2,0,0,0,0,0,0,0,0,0,0,0,0,0,0,0,0,0,0,0,0,0,0,0,0,0,0,0,0,0,0,0,0,0,0],"split_type":[0,0,0,0,0,0,0,0,0,0,0,0,0,0,0,0,0,0,0,0,0,0,0,0,0,0,0,0,0,0,0,0,0,0,0,0,0,0,0,0,0,0,0,0,0,0,0,0,0,0,0,0,0,0,0,0,0,0,0,0,0,0,0,0,0,0,0,0,0,0,0,0,0,0,0,0,0,0,0,0,0,0,0,0,0,0,0],"sum_hessian":[2.121513E3,1.6436879E3,4.7782498E2,1.2178993E3,4.257886E2,1.4069571E2,3.3712927E2,3.1182227E2,9.06077E2,4.224374E2,3.3512099E0,2.1223664E0,1.3857335E2,2.933384E2,4.3790882E1,1.0983088E0,3.1072394E2,4.805522E2,4.2552484E2,1.1030143E0,4.2133438E2,1.2620109E0,2.089199E0,1.0269792E0,1.0953872E0,3.6493423E1,1.02079926E2,2.5303545E2,4.0302956E1,1.3334593E1,3.045629E1,9.555416E0,3.0116852E2,1.8712984E0,4.786809E2,2.6084518E1,3.994403E2,4.0616135E2,1.5173042E1,1.0196929E0,1.069506E0,1.0033226E0,3.54901E1,9.497604E1,7.1038766E0,6.458311E1,1.8845233E2,3.8422955E1,1.8800005E0,2.0824356E0,1.1252157E1,6.33746E0,2.4118828E1,8.538158E0,1.0172582E0,2.6471576E2,3.6452785E1,2.70076E2,2.086049E2,2.3358772E1,2.7257452E0,1.4346577E1,3.8509375E2,3.7327966E2,3.288168E1,1.22274885E1,2.945554E0,3.446306E1,1.0270435E0,8.036363E1,1.4612417E1,4.513009E0,2.5908673E0,6.0399723E1,4.1833887E0,1.3212806E1,1.7523952E2,2.7228868E1,1.1194088E1,1.0270586E0,1.0553771E0,1.9858135E0,9.266344E0,3.624591E0,2.7128692E0,7.0541096E0,1.7064718E1],"tree_param":{"num_deleted":"0","num_feature":"9","num_nodes":"87","size_leaf_vector":"0"}},{"base_weights":[-4.4016388E-1,-2.631457E-1,-5.748851E-1,-1.1559072E-1,-3.4218532E-1,-5.301554E-1,-7.219463E-1,-2.664414E-1,8.406308E-2,-4.5665893E-1,-2.4582943E-1,-6.3758516E-1,-4.65106E-1,-8.200977E-1,-6.2064147E-1,2.9841816E-1,-3.1445175E-1,-4.4822313E-2,4.2126036E-1,-4.8160547E-1,5.19324E-1,-2.9199198E-1,1.199566E-1,-9.00552E-2,-6.5066195E-1,5.7634026E-2,-5.001363E-1,-3.2117233E-1,-8.563208E-1,-1.8461142E-1,-6.70485E-1,2.330424E-2,1.5724368E0,-3.652792E-1,2.3408554E-2,2.3246063E-1,-2.282864E-1,1.4843816E-1,1.1331584E0,-5.29743E-1,-2.6914954E-1,-4.5238575E-1,1.2175539E0,-3.230762E-1,3.6311412E-1,9.9947166E-1,-1.0801958E-1,8.2143456E-1,-4.47158E-1,4.7030246E-1,-6.560978E-1,-3.3604595E-1,5.3203183E-1,-5.1749134E-1,5.637742E-2,-5.7751036E-1,8.8064456E-1,-4.7156176E-1,-8.878067E-1,-6.12749E-1,2.2419657E-1,-7.4477845E-1,-4.1547576E-1,-2.4102607E-1,1.3956602E0,-3.0472636E-1,-7.5782645E-1,9.214917E-1,-2.9651904E-1,-1.5396544E-1,7.3599106E-1,-2.8348172E-1,1.2405355E0,8.934315E-1,-7.947563E-2,1.700439E0,-2.5869933E-1,-2.0872676E-1,-5.8045155E-1,-5.238596E-1,1.4872211E-1,-6.140792E-1,-3.435803E-2,3.0492914E-1,1.9635683E0,-4.465286E-1,-1.9061555E-1,9.556994E-1,-2.6670307E-1,3.0717117E-1,1.9686711E0,-8.6444867E-1,3.5892537E-1,-8.7143487E-1,7.6128846E-1,-8.78899E-1,-6.210709E-1,-5.621738E-1,4.3452644E-1,-4.6781212E-1,9.634945E-1,-4.1221645E-1,-5.9604895E-1,3.7572294E-1,-8.1661725E-1,-7.6932335E-1,3.2168078E-1,-7.194598E-1,7.9759014E-1,-9.0710384E-1,-3.5337904E-1,-8.458734E-1,7.16904E-2,7.8463995E-1,-7.43592E-1,-2.4352911E-1,-7.673448E-1,-5.252052E-1,1.9048995E-1],"categories":[],"categories_nodes":[],"categories_segments":[],"categories_sizes":[],"default_left":[1,1,1,1,1,1,1,1,1,1,1,1,1,1,1,1,1,1,1,1,1,1,1,1,1,1,1,1,1,1,1,1,0,1,1,1,1,1,1,1,1,1,1,1,1,1,1,0,1,0,1,1,1,1,1,1,0,1,1,1,1,1,1,0,0,0,0,0,0,0,0,0,0,0,0,0,0,0,0,0,0,0,0,0,0,0,0,0,0,0,0,0,0,0,0,0,0,0,0,0,0,0,0,0,0,0,0,0,0,0,0,0,0,0,0,0,0,0,0],"id":10,"left_children":[1,3,5,7,9,11,13,15,17,19,21,23,25,27,29,31,33,35,37,39,41,43,45,47,49,51,53,55,57,59,61,63,-1,65,67,69,71,73,75,77,79,81,83,85,87,89,91,-1,93,-1,95,97,99,101,103,105,-1,107,109,111,113,115,117,-1,-1,-1,-1,-1,-1,-1,-1,-1,-1,-1,-1,-1,-1,-1,-1,-1,-1,-1,-1,-1,-1,-1,-1,-1,-1,-1,-1,-1,-1,-1,-1,-1,-1,-1,-1,-1,-1,-1,-1,-1,-1,-1,-1,-1,-1,-1,-1,-1,-1,-1,-1,-1,-1,-1,-1],"loss_changes":[4.388748E1,9.2892685E0,6.5093384E0,8.471149E0,5.6274567E0,5.3440704E0,1.8932266E0,4.4337244E0,5.2988944E0,6.012089E0,4.84247E0,2.1016846E0,9.302612E0,1.8863678E0,2.5493813E0,4.5371685E0,2.5497675E0,4.5704365E0,6.37555E0,2.222721E0,4.8791113E0,5.2711773E0,6.6470914E0,3.0359006E0,2.1032028E0,6.2864633E0,4.6143265E0,3.4954195E0,9.248276E-1,2.587357E0,1.7745819E0,4.5976615E0,0E0,2.828022E0,6.1032233E0,7.0897813E0,4.7251186E0,4.4021745E0,7.691245E0,2.931385E0,4.841465E0,2.0847583E-1,2.112997E0,3.874794E0,4.7096086E0,3.9651995E0,9.776987E0,0E0,4.015657E0,0E0,1.7447433E0,3.4652379E0,7.0158215E0,3.562523E0,4.5607734E0,1.7298827E0,0E0,3.8841503E0,7.249527E-1,1.1943331E0,4.8643627E0,7.624016E-1,1.9005718E0,0E0,0E0,0E0,0E0,0E0,0E0,0E0,0E0,0E0,0E0,0E0,0E0,0E0,0E0,0E0,0E0,0E0,0E0,0E0,0E0,0E0,0E0,0E0,0E0,0E0,0E0,0E0,0E0,0E0,0E0,0E0,0E0,0E0,0E0,0E0,0E0,0E0,0E0,0E0,0E0,0E0,0E0,0E0,0E0,0E0,0E0,0E0,0E0,0E0,0E0,0E0,0E0,0E0,0E0,0E0,0E0],"parents":[2147483647,0,0,1,1,2,2,3,3,4,4,5,5,6,6,7,7,8,8,9,9,10,10,11,11,12,12,13,13,14,14,15,15,16,16,17,17,18,18,19,19,20,20,21,21,22,22,23,23,24,24,25,25,26,26,27,27,28,28,29,29,30,30,31,31,33,33,34,34,35,35,36,36,37,37,38,38,39,39,40,40,41,41,42,42,43,43,44,44,45,45,46,46,48,48,50,50,51,51,52,52,53,53,54,54,55,55,57,57,58,58,59,59,60,60,61,61,62,62],"right_children":[2,4,6,8,10,12,14,16,18,20,22,24,26,28,30,32,34,36,38,40,42,44,46,48,50,52,54,56,58,60,62,64,-1,66,68,70,72,74,76,78,80,82,84,86,88,90,92,-1,94,-1,96,98,100,102,104,106,-1,108,110,112,114,116,118,-1,-1,-1,-1,-1,-1,-1,-1,-1,-1,-1,-1,-1,-1,-1,-1,-1,-1,-1,-1,-1,-1,-1,-1,-1,-1,-1,-1,-1,-1,-1,-1,-1,-1,-1,-1,-1,-1,-1,-1,-1,-1,-1,-1,-1,-1,-1,-1,-1,-1,-1,-1,-1,-1,-1,-1],"split_conditions":[6.871176E2,6.353126E2,7.705857E2,2.602167E-1,2.4256784E5,2.0925894E-1,2.4776698E5,4.97604E-2,7.129955E-2,6.861605E2,9.532072E-1,1.10927135E-1,2.1734563E-1,1.5E0,2.5907011E5,4.907904E-2,6.3069275E2,5.9207574E-2,3.6447302E-1,7.391197E-2,6.369552E-2,1.5E0,5.6052946E-2,6.5E0,3.7834793E-2,8.8027894E-1,8.429867E-2,9.4103706E-1,7.73889E2,2.3075974E-1,2.25E1,3.4480062E5,4.7173107E-1,6.2556885E2,5.9699E-2,5.5232555E-2,4.6131057E-1,7.980236E-1,2.7553156E5,5.3517982E-2,9.0083337E-1,6.8673517E2,2.05E1,6.568529E-2,6.201447E-2,2.8593075E-1,6.48195E-2,2.4643038E-1,1.09270975E-1,1.4109075E-1,1.3403128E-1,7.339993E-2,2.1457888E5,1.25E1,8.970513E-2,1.5E0,2.641934E-1,3.6800873E-1,1.5E0,2.05E1,3.2419816E-1,1.3146664E-1,3.667608E5,-7.2307825E-2,4.1869807E-1,-9.141791E-2,-2.2734794E-1,2.764475E-1,-8.8955715E-2,-4.6189636E-2,2.2079733E-1,-8.504452E-2,3.7216067E-1,2.6802945E-1,-2.3842689E-2,5.101317E-1,-7.76098E-2,-6.261803E-2,-1.7413548E-1,-1.571579E-1,4.4616636E-2,-1.8422376E-1,-1.0307409E-2,9.147874E-2,5.890705E-1,-1.339586E-1,-5.7184666E-2,2.8670982E-1,-8.001092E-2,9.215135E-2,5.906013E-1,-2.5933462E-1,1.07677616E-1,-2.6143047E-1,2.2838655E-1,-2.636697E-1,-1.8632129E-1,-1.6865215E-1,1.3035794E-1,-1.4034364E-1,2.8904834E-1,-1.2366494E-1,-1.788147E-1,1.1271689E-1,-2.4498518E-1,-2.3079701E-1,9.650424E-2,-2.1583794E-1,2.3927705E-1,-2.7213117E-1,-1.06013715E-1,-2.5376204E-1,2.1507122E-2,2.3539199E-1,-2.2307761E-1,-7.305874E-2,-2.3020343E-1,-1.5756157E-1,5.7146985E-2],"split_indices":[0,0,0,1,4,1,4,5,5,0,2,1,1,6,4,5,0,5,1,5,5,7,5,6,5,2,5,2,0,1,6,4,0,0,5,5,1,2,4,5,2,0,6,5,5,1,5,0,1,0,1,5,4,6,5,8,0,1,7,6,1,1,4,0,0,0,0,0,0,0,0,0,0,0,0,0,0,0,0,0,0,0,0,0,0,0,0,0,0,0,0,0,0,0,0,0,0,0,0,0,0,0,0,0,0,0,0,0,0,0,0,0,0,0,0,0,0,0,0],"split_type":[0,0,0,0,0,0,0,0,0,0,0,0,0,0,0,0,0,0,0,0,0,0,0,0,0,0,0,0,0,0,0,0,0,0,0,0,0,0,0,0,0,0,0,0,0,0,0,0,0,0,0,0,0,0,0,0,0,0,0,0,0,0,0,0,0,0,0,0,0,0,0,0,0,0,0,0,0,0,0,0,0,0,0,0,0,0,0,0,0,0,0,0,0,0,0,0,0,0,0,0,0,0,0,0,0,0,0,0,0,0,0,0,0,0,0,0,0,0,0],"sum_hessian":[1.8456365E3,7.988859E2,1.0467505E3,2.7952246E2,5.1936346E2,8.0615753E2,2.4059303E2,1.5903058E2,1.2049187E2,2.3565692E2,2.8370654E2,3.0071783E2,5.054397E2,1.1859466E2,1.2199838E2,1.2049385E1,1.469812E2,8.779967E1,3.26922E1,2.3027747E2,5.379449E0,2.5209381E2,3.1612728E1,7.198544E0,2.935193E2,3.1703184E1,4.737365E2,8.695278E0,1.09899376E2,1.2997805E1,1.0900057E2,1.0746959E1,1.3024261E0,1.276904E2,1.9290796E1,3.485446E1,5.2945206E1,2.4508331E1,8.183868E0,1.865224E2,4.3755062E1,2.3964553E0,2.9829934E0,2.4115791E2,1.0935899E1,5.810839E0,2.580189E1,1.6603348E0,5.538209E0,1.0037975E0,2.9251547E2,1.7484922E1,1.4218262E1,4.5947772E2,1.4258791E1,7.5948296E0,1.1004483E0,9.521626E0,1.00377754E2,6.105135E0,6.8926697E0,8.292186E1,2.6078716E1,9.702521E0,1.044438E0,1.121646E2,1.5525803E1,4.5731077E0,1.47176895E1,2.011317E1,1.474129E1,5.1805466E1,1.139742E0,5.057285E0,1.9451046E1,5.6566706E0,2.5271978E0,2.6142221E1,1.6038019E2,2.7027216E1,1.6727846E1,1.3898636E0,1.0065917E0,1.975294E0,1.0076995E0,1.2359611E2,1.17561806E2,5.367901E0,5.5679984E0,4.1578293E0,1.65301E0,9.5233E0,1.627859E1,4.3054695E0,1.2327394E0,3.6466328E1,2.5604916E2,1.3727094E1,3.7578292E0,4.2606525E0,9.957609E0,1.9901956E2,2.6045816E2,1.0856902E1,3.4018893E0,6.378593E0,1.2162364E0,8.328059E0,1.1935667E0,9.620659E1,4.1711636E0,4.3780723E0,1.7270626E0,4.4847875E0,2.4078822E0,4.080328E0,7.884153E1,2.2193203E1,3.8855133E0],"tree_param":{"num_deleted":"0","num_feature":"9","num_nodes":"119","size_leaf_vector":"0"}},{"base_weights":[-3.7563792E-1,-2.5472593E-1,-5.5435497E-1,-3.030135E-1,-9.954522E-2,-5.733027E-1,2.2870706E-2,-3.6894196E-1,-2.2648561E-1,1.1622604E-1,-2.0716557E-1,-5.135399E-1,-6.6776675E-1,-2.3517044E-1,8.2551914E-1,-3.423573E-1,-8.1432635E-1,1.0373884E0,-2.3815182E-1,-5.0538176E-1,2.4717076E-1,-1.496004E-1,-7.8713155E-1,2.740635E-1,-5.275597E-1,-2.4046375E-1,-7.159386E-1,2.1720222E-1,-4.7922024E-1,1.5256315E0,-1.7862946E-1,-3.8134775E-1,-6.2003046E-2,-9.2339015E-1,-3.7807065E-1,-1.4714861E-1,1.8251742E0,-2.5467235E-1,6.721637E-1,3.0484825E-1,-8.7229115E-1,-3.375532E-2,5.8695745E-1,-2.3870307E-1,2.4848126E-1,-9.1402143E-1,4.1374654E-1,-2.2556882E-1,1.4052598E0,-5.3905576E-1,2.9485908E-1,1.21119946E-1,-7.594195E-1,-6.739492E-2,-7.3147196E-1,-5.2226114E-1,8.215173E-1,2.3717126E-1,-5.9737724E-1,1.793738E-1,2.307314E0,-6.007677E-1,3.6618564E-1,8.250233E-2,-4.0355322E-1,-3.8239315E-1,3.4365997E-1,-6.3666683E-1,4.3058443E-1,-3.1050774E-1,-5.8237556E-2,-4.9968135E-1,1.6981204E0,1.3465906E0,-3.0963558E-1,3.8459474E-1,-2.2232884E-1,-1.4698638E-1,8.373527E-1,-4.037858E-2,-4.8680645E-1,1.2177268E0,-1.6073287E-2,5.002522E-1,-5.8942306E-1,-5.499655E-1,1.7147568E-1,-4.2131805E-1,1.8445755E0,-2.0619658E-1,6.442715E-1,-8.3219284E-1,-2.4809519E-2,1.3592976E0,-6.380566E-1,-7.430691E-1,-2.1389523E-1,-4.5672987E-2,-6.8660736E-1,-4.1494034E-2,1.5378022E0,-7.3846936E-1,1.10340945E-1],"categories":[],"categories_nodes":[],"categories_segments":[],"categories_sizes":[],"default_left":[1,1,1,1,1,1,1,1,1,1,1,1,1,1,1,1,1,1,1,1,1,1,1,1,1,1,1,1,1,1,1,1,1,0,1,0,0,1,1,1,0,1,1,1,1,0,0,1,0,1,1,1,1,1,1,1,1,0,1,0,0,0,0,0,0,0,0,0,0,0,0,0,0,0,0,0,0,0,0,0,0,0,0,0,0,0,0,0,0,0,0,0,0,0,0,0,0,0,0,0,0,0,0],"id":11,"left_children":[1,3,5,7,9,11,13,15,17,19,21,23,25,27,29,31,33,35,37,39,41,43,45,47,49,51,53,55,57,59,61,63,65,-1,67,-1,-1,69,71,73,-1,75,77,79,81,-1,-1,83,-1,85,87,89,91,93,95,97,99,-1,101,-1,-1,-1,-1,-1,-1,-1,-1,-1,-1,-1,-1,-1,-1,-1,-1,-1,-1,-1,-1,-1,-1,-1,-1,-1,-1,-1,-1,-1,-1,-1,-1,-1,-1,-1,-1,-1,-1,-1,-1,-1,-1,-1,-1],"loss_changes":[3.5358566E1,7.326229E0,7.254486E0,3.6916504E0,5.468922E0,3.2763062E0,4.7516084E0,4.461792E0,5.391157E0,6.52843E0,5.117298E0,4.528244E0,4.8728027E0,2.028333E0,4.1917534E0,4.1252403E0,6.893921E-1,3.4204125E0,5.3821964E0,4.4329743E0,6.2867765E0,5.1627836E0,2.499878E0,4.6131034E0,3.8499527E0,5.0339565E0,2.1645126E0,3.4659715E0,1.1264193E0,3.153079E0,9.525827E-1,3.4633179E0,6.309565E0,0E0,1.5410833E0,0E0,0E0,3.7225704E0,8.604386E0,3.6881256E0,0E0,2.99538E0,5.5937824E0,5.790271E0,6.8928065E0,0E0,0E0,1.9148593E0,0E0,3.0815735E0,7.467744E0,2.9384277E0,5.6487083E-1,5.94906E0,1.1286621E0,2.559073E-1,2.6158323E0,0E0,1.107039E0,0E0,0E0,0E0,0E0,0E0,0E0,0E0,0E0,0E0,0E0,0E0,0E0,0E0,0E0,0E0,0E0,0E0,0E0,0E0,0E0,0E0,0E0,0E0,0E0,0E0,0E0,0E0,0E0,0E0,0E0,0E0,0E0,0E0,0E0,0E0,0E0,0E0,0E0,0E0,0E0,0E0,0E0,0E0,0E0],"parents":[2147483647,0,0,1,1,2,2,3,3,4,4,5,5,6,6,7,7,8,8,9,9,10,10,11,11,12,12,13,13,14,14,15,15,16,16,17,17,18,18,19,19,20,20,21,21,22,22,23,23,24,24,25,25,26,26,27,27,28,28,29,29,30,30,31,31,32,32,34,34,37,37,38,38,39,39,41,41,42,42,43,43,44,44,47,47,49,49,50,50,51,51,52,52,53,53,54,54,55,55,56,56,58,58],"right_children":[2,4,6,8,10,12,14,16,18,20,22,24,26,28,30,32,34,36,38,40,42,44,46,48,50,52,54,56,58,60,62,64,66,-1,68,-1,-1,70,72,74,-1,76,78,80,82,-1,-1,84,-1,86,88,90,92,94,96,98,100,-1,102,-1,-1,-1,-1,-1,-1,-1,-1,-1,-1,-1,-1,-1,-1,-1,-1,-1,-1,-1,-1,-1,-1,-1,-1,-1,-1,-1,-1,-1,-1,-1,-1,-1,-1,-1,-1,-1,-1,-1,-1,-1,-1,-1,-1],"split_conditions":[7.116863E2,5E-1,1.5E0,2.4899605E-1,6.4195355E2,7.6122595E2,3.2453096E-1,2.4180432E-1,2.4975902E-1,1.7368522E-1,3.6232562E5,2.5E0,2.5E0,2.0969406E5,7.431356E2,7.698621E-2,2.15E1,1.8E1,7.099971E2,1.3860121E-1,6.606252E-2,6.9794165E2,3.8162035E-1,7.35714E-2,7.6048035E2,2.6597938E5,9.393591E4,5.6E1,1.5882383E-1,6.464335E-2,7.72245E2,1.1510169E5,1.9475001E-1,-2.7701706E-1,9.25E1,-4.4144586E-2,5.475523E-1,9.35E1,6.55E1,6.5E0,-2.6168737E-1,2.2407903E-1,2.3405124E-1,6.743884E2,1.710082E-1,-2.7420643E-1,1.2412397E-1,6.5E0,4.2157796E-1,8.7260485E-2,3.360231E-1,2.2769831E5,8.330267E2,7.729515E2,4.2641544E-1,6.0014572E-2,6.451563E-2,7.115138E-2,3.3551888E5,5.3812142E-2,6.921942E-1,-1.802303E-1,1.098557E-1,2.47507E-2,-1.2106597E-1,-1.1471795E-1,1.03098E-1,-1.9100006E-1,1.2917534E-1,-9.315233E-2,-1.7471267E-2,-1.4990442E-1,5.0943613E-1,4.0397722E-1,-9.289068E-2,1.15378425E-1,-6.6698655E-2,-4.4095915E-2,2.5120583E-1,-1.2113575E-2,-1.4604194E-1,3.6531806E-1,-4.821986E-3,1.5007566E-1,-1.7682692E-1,-1.6498965E-1,5.1442705E-2,-1.2639542E-1,5.533727E-1,-6.1858974E-2,1.9328146E-1,-2.4965785E-1,-7.4428557E-3,4.0778932E-1,-1.9141698E-1,-2.2292075E-1,-6.416857E-2,-1.3701896E-2,-2.0598222E-1,-1.2448211E-2,4.613407E-1,-2.2154082E-1,3.3102285E-2],"split_indices":[0,7,7,1,0,0,1,1,1,1,4,3,6,4,0,5,6,6,0,1,5,0,1,5,0,4,4,3,1,5,0,4,1,0,3,0,0,3,3,6,0,1,1,0,1,0,0,6,0,5,1,4,0,0,1,5,5,0,4,0,0,0,0,0,0,0,0,0,0,0,0,0,0,0,0,0,0,0,0,0,0,0,0,0,0,0,0,0,0,0,0,0,0,0,0,0,0,0,0,0,0,0,0],"split_type":[0,0,0,0,0,0,0,0,0,0,0,0,0,0,0,0,0,0,0,0,0,0,0,0,0,0,0,0,0,0,0,0,0,0,0,0,0,0,0,0,0,0,0,0,0,0,0,0,0,0,0,0,0,0,0,0,0,0,0,0,0,0,0,0,0,0,0,0,0,0,0,0,0,0,0,0,0,0,0,0,0,0,0,0,0,0,0,0,0,0,0,0,0,0,0,0,0,0,0,0,0,0,0],"sum_hessian":[1.6418214E3,9.807291E2,6.610923E2,7.4725366E2,2.3347548E2,6.400879E2,2.1004402E1,3.993738E2,3.4787985E2,7.767087E1,1.5580461E2,3.9599667E2,2.4409123E2,1.6429527E1,4.5748744E0,3.785473E2,2.0826515E1,2.3775942E0,3.4550226E2,1.3017236E1,6.465363E1,1.4288077E2,1.2923841E1,6.601302E0,3.8939536E2,2.5336708E1,2.1875452E2,5.7960086E0,1.0633518E1,2.389523E0,2.1853514E0,3.3201224E2,4.6535057E1,1.5767917E1,5.0585995E0,1.274473E0,1.1031213E0,3.400512E2,5.4510612E0,4.1101394E0,8.907096E0,3.588532E1,2.8768314E1,1.17076004E2,2.5804768E1,1.1904802E1,1.0190398E0,5.134197E0,1.4671048E0,3.843671E2,5.028257E0,1.538428E1,9.952427E0,5.2417197E0,2.135128E2,2.6676044E0,3.1284041E0,1.3629053E0,9.270613E0,1.3294096E0,1.0601134E0,1.1734381E0,1.0119133E0,1.5043928E1,3.169683E2,2.6032286E1,2.0502773E1,3.994046E0,1.0645535E0,2.6433493E2,7.5716286E1,2.7840672E0,2.666994E0,1.082888E0,3.0272517E0,1.0826734E1,2.5058586E1,7.4231114E0,2.1345203E1,6.571148E1,5.1364525E1,4.7605734E0,2.1044195E1,1.5891905E0,3.545007E0,3.787772E2,5.5899034E0,3.936977E0,1.0912799E0,9.836072E0,5.5482087E0,8.934504E0,1.0179235E0,1.1027651E0,4.1389546E0,2.0840741E2,5.1054E0,1.0116946E0,1.6559099E0,1.8461512E0,1.282253E0,7.6933928E0,1.5772206E0],"tree_param":{"num_deleted":"0","num_feature":"9","num_nodes":"103","size_leaf_vector":"0"}},{"base_weights":[-2.7532506E-1,-1.21792026E-1,-4.0914616E-1,-1.5456624E-1,1.678071E-1,-5.780361E-1,-3.2121626E-1,-2.986384E-1,-1.01493806E-1,3.7081575E-1,-5.2258295E-1,-5.934816E-1,9.115419E-2,-3.8654536E-1,-1.13679305E-1,-3.9392287E-1,-1.9152079E-2,-3.6297667E-1,-4.9495324E-2,2.8903478E-1,2.2989597E0,-9.102166E-1,-2.3055337E-1,-5.188942E-1,-7.129096E-1,-7.1029896E-1,5.607618E-1,-3.3892092E-1,-6.3197726E-1,4.7755057E-1,-1.8944716E-1,1.7169665E-1,-4.507492E-1,1.657985E-1,-6.067946E-1,-5.11135E-1,2.8896745E-2,7.3968804E-1,-6.800203E-2,4.5744553E-1,-2.6216128E-1,9.339115E-1,-4.5187432E-1,-5.401612E-1,4.7608867E-1,-7.671446E-1,-4.399344E-1,1.2278011E0,-6.216197E-1,-5.861984E-2,-3.7692428E-1,-7.316653E-1,-3.149678E-1,1.2422651E-1,1.333339E0,-6.1799683E-2,-5.5158764E-1,-2.8855273E-1,1.1955612E0,-5.5186564E-1,-1.3537377E-1,-7.5909895E-1,3.453998E-1,1.9395618E-1,-8.318436E-1,-3.2298595E-1,-8.0418277E-1,8.8009375E-1,-5.365572E-1,1.1209658E0,-3.6974066E-1,2.880882E-1,-1.0713785E-1,1.399983E0,3.1321025E-1,-5.1934403E-1,1.4264992E0,-7.049752E-1,5.735237E-1,-6.035005E-1,-3.3172348E-1,1.1630965E0,-2.8143153E-1,-3.402767E-1,-7.8996164E-1,-7.0330137E-1,6.0773134E-1,1.5639963E0,3.1563917E-1,-2.0447133E-1,1.1337422E0,9.6210533E-1,-3.8486904E-1,-1.7526734E-1,-7.9011583E-1,-4.7104463E-1,4.3068054E-1,-3.5778278E-1,7.2569084E-1,-2.2294694E-1,2.2300138E0,-1.347711E-1,1.1001779E0,-6.680368E-1,-1.2231228E-1],"categories":[],"categories_nodes":[],"categories_segments":[],"categories_sizes":[],"default_left":[1,1,1,1,1,1,1,1,1,1,1,1,1,1,1,1,1,1,1,1,0,0,1,1,1,0,1,1,1,1,1,1,1,1,1,1,1,1,1,1,1,0,1,1,1,1,1,1,0,1,1,1,1,1,1,1,1,0,0,0,0,0,0,0,0,0,0,0,0,0,0,0,0,0,0,0,0,0,0,0,0,0,0,0,0,0,0,0,0,0,0,0,0,0,0,0,0,0,0,0,0,0,0,0,0],"id":12,"left_children":[1,3,5,7,9,11,13,15,17,19,21,23,25,27,29,31,33,35,37,39,-1,-1,41,43,45,-1,47,49,51,53,55,57,59,61,63,65,67,69,71,73,75,-1,77,79,81,83,85,87,-1,89,91,93,95,97,99,101,103,-1,-1,-1,-1,-1,-1,-1,-1,-1,-1,-1,-1,-1,-1,-1,-1,-1,-1,-1,-1,-1,-1,-1,-1,-1,-1,-1,-1,-1,-1,-1,-1,-1,-1,-1,-1,-1,-1,-1,-1,-1,-1,-1,-1,-1,-1,-1,-1],"loss_changes":[3.03835E1,6.5867157E0,1.156102E1,4.721695E0,1.0110342E1,2.8403702E0,7.039219E0,4.434226E0,6.177913E0,8.049458E0,1.657124E0,1.9783707E0,3.0134687E0,4.4253654E0,5.7569685E0,4.073744E0,4.823761E0,4.3941402E0,5.6186767E0,5.1471562E0,0E0,0E0,3.1913486E0,3.7686996E0,1.1233406E0,0E0,4.6594267E0,3.5420113E0,1.7714958E0,4.265085E0,5.18217E0,6.03524E0,3.5370731E0,5.8833714E0,2.0747614E0,2.7611246E0,1.0888112E1,4.145355E0,5.2350836E0,5.250451E0,6.521341E0,0E0,2.922606E0,1.9510574E0,2.411277E0,5.198593E-1,5.5869823E0,5.7795715E-1,0E0,7.384828E0,3.502739E0,1.4042721E0,2.1709437E0,3.5861042E0,6.3291817E0,7.318155E0,1.382082E0,0E0,0E0,0E0,0E0,0E0,0E0,0E0,0E0,0E0,0E0,0E0,0E0,0E0,0E0,0E0,0E0,0E0,0E0,0E0,0E0,0E0,0E0,0E0,0E0,0E0,0E0,0E0,0E0,0E0,0E0,0E0,0E0,0E0,0E0,0E0,0E0,0E0,0E0,0E0,0E0,0E0,0E0,0E0,0E0,0E0,0E0,0E0,0E0],"parents":[2147483647,0,0,1,1,2,2,3,3,4,4,5,5,6,6,7,7,8,8,9,9,10,10,11,11,12,12,13,13,14,14,15,15,16,16,17,17,18,18,19,19,22,22,23,23,24,24,26,26,27,27,28,28,29,29,30,30,31,31,32,32,33,33,34,34,35,35,36,36,37,37,38,38,39,39,40,40,42,42,43,43,44,44,45,45,46,46,47,47,49,49,50,50,51,51,52,52,53,53,54,54,55,55,56,56],"right_children":[2,4,6,8,10,12,14,16,18,20,22,24,26,28,30,32,34,36,38,40,-1,-1,42,44,46,-1,48,50,52,54,56,58,60,62,64,66,68,70,72,74,76,-1,78,80,82,84,86,88,-1,90,92,94,96,98,100,102,104,-1,-1,-1,-1,-1,-1,-1,-1,-1,-1,-1,-1,-1,-1,-1,-1,-1,-1,-1,-1,-1,-1,-1,-1,-1,-1,-1,-1,-1,-1,-1,-1,-1,-1,-1,-1,-1,-1,-1,-1,-1,-1,-1,-1,-1,-1,-1,-1],"split_conditions":[6.8647675E2,3.5599625E5,8.376305E-1,8.1868345E-1,4.128963E5,1.5E0,5E-1,5E-1,1.95E1,6.8550684E2,8.3577263E-1,7.4784467E2,7.601187E-1,7.810996E2,1.4571275E5,5.904221E2,6.683191E2,5E-1,2.15E1,9.292824E-1,6.8968797E-1,-2.73065E-1,8.502456E-1,7.463828E2,7.44922E-2,-2.1308969E-1,8.122622E-1,1.5847E5,3.0172884E5,7.46714E-2,9.413214E-1,7.3245496E-2,6.708368E2,5.948991E2,7.1945E-1,6.6219305E2,1.05E1,6.632344E2,5.9135693E2,3.600719E5,6.778884E2,2.8017345E-1,2.55E1,7.299386E2,7.843977E-1,7.5E0,3.185587E5,1.3E1,-1.8648592E-1,1.5348219E5,8.382059E-1,1.5E0,9.568721E-1,7.5152954E2,1.1056727E5,9.364889E-1,7.217048E-2,-8.656582E-2,3.5866836E-1,-1.655597E-1,-4.061213E-2,-2.277297E-1,1.0361994E-1,5.8186855E-2,-2.495531E-1,-9.689579E-2,-2.4125484E-1,2.6402813E-1,-1.6096717E-1,3.3628976E-1,-1.109222E-1,8.642647E-2,-3.2141358E-2,4.1999492E-1,9.396308E-2,-1.5580322E-1,4.279498E-1,-2.1149257E-1,1.7205712E-1,-1.8105015E-1,-9.951705E-2,3.48929E-1,-8.442946E-2,-1.0208301E-1,-2.369885E-1,-2.1099041E-1,1.823194E-1,4.691989E-1,9.469175E-2,-6.13414E-2,3.4012267E-1,2.8863162E-1,-1.15460716E-1,-5.2580204E-2,-2.3703475E-1,-1.4131339E-1,1.2920417E-1,-1.0733484E-1,2.1770726E-1,-6.6884086E-2,6.690042E-1,-4.0431328E-2,3.300534E-1,-2.0041105E-1,-3.6693685E-2],"split_indices":[0,4,2,2,4,7,7,7,3,0,2,0,2,0,4,0,0,7,3,2,0,0,2,0,5,0,2,4,4,5,2,5,0,0,2,0,6,0,0,4,0,0,6,0,2,3,4,6,0,4,2,6,2,0,4,2,5,0,0,0,0,0,0,0,0,0,0,0,0,0,0,0,0,0,0,0,0,0,0,0,0,0,0,0,0,0,0,0,0,0,0,0,0,0,0,0,0,0,0,0,0,0,0,0,0],"split_type":[0,0,0,0,0,0,0,0,0,0,0,0,0,0,0,0,0,0,0,0,0,0,0,0,0,0,0,0,0,0,0,0,0,0,0,0,0,0,0,0,0,0,0,0,0,0,0,0,0,0,0,0,0,0,0,0,0,0,0,0,0,0,0,0,0,0,0,0,0,0,0,0,0,0,0,0,0,0,0,0,0,0,0,0,0,0,0,0,0,0,0,0,0,0,0,0,0,0,0,0,0,0,0,0,0],"sum_hessian":[1.4802319E3,6.90235E2,7.8999695E2,6.2048083E2,6.9754166E1,2.6857053E2,5.2142645E2,1.6579135E2,4.5468948E2,5.42615E1,1.5492662E1,2.6262213E2,5.9484043E0,3.9593146E2,1.2549501E2,1.23333984E2,4.245736E1,7.442927E1,3.8026022E2,5.315679E1,1.1047078E0,5.7471523E0,9.74551E0,1.6494957E2,9.7672554E1,2.0083418E0,3.9400625E0,3.3358282E2,6.2348625E1,1.3653278E1,1.11841736E2,1.1075253E1,1.12258736E2,3.283953E1,9.61783E0,5.3788673E1,2.0640593E1,7.820058E0,3.724402E2,4.0846703E1,1.231009E1,1.042221E0,8.703289E0,1.6194524E2,3.004334E0,7.99731E1,1.7699457E1,2.494423E0,1.4456396E0,4.013105E1,2.9345178E2,4.6437637E1,1.5910987E1,1.0474073E1,3.1792052E0,8.355934E1,2.8282393E1,8.136081E0,2.939172E0,8.443659E1,2.7822138E1,4.815329E0,2.80242E1,2.1403558E0,7.4774747E0,3.4037395E1,1.9751276E1,8.016558E0,1.2624034E1,5.8121834E0,2.0078747E0,3.624963E1,3.3619055E2,4.2656455E0,3.658106E1,1.1283992E1,1.0260983E0,7.230948E0,1.4723414E0,1.2274926E2,3.9195972E1,1.2947255E0,1.7096086E0,4.8652716E0,7.510783E1,1.4406567E1,3.2928908E0,1.3004955E0,1.1939273E0,3.6495396E1,3.6356552E0,1.0224725E0,2.924293E2,4.7947135E0,4.1642925E1,1.34615345E1,2.449452E0,6.0393376E0,4.434736E0,1.4368111E0,1.7423941E0,7.945372E1,4.105624E0,2.1809855E1,6.4725385E0],"tree_param":{"num_deleted":"0","num_feature":"9","num_nodes":"105","size_leaf_vector":"0"}},{"base_weights":[-2.047855E-1,-7.530561E-2,-3.23407E-1,-2.6719457E-1,-2.6593324E-2,-4.9317506E-1,-2.6584384E-1,-3.2560173E-1,7.254981E-1,-4.6973743E-2,4.1038978E-1,-7.1568525E-1,-3.672189E-1,-3.3133614E-1,-7.264661E-2,-2.7044743E-1,-8.042359E-1,-6.880752E-1,1.2960259E0,5.908569E-1,-6.251847E-2,1.190885E0,1.24771304E-1,-4.030309E-1,-7.783216E-1,1.7408913E0,-4.0996167E-1,-3.0689418E-1,-8.9836395E-1,-2.3069254E-1,2.1397959E-1,-2.8984603E-1,9.720366E-1,-9.463742E-1,2.5217056E-1,2.173358E0,-1.150237E-1,1.3958855E0,-1.05790794E-1,-5.5477077E-1,-3.7524264E-2,4.8590666E-1,2.4182565E0,-2.5218663E-1,9.662998E-1,7.199568E-1,-5.921492E-1,-6.223167E-1,-9.1096187E-1,-6.451268E-1,-2.1604213E-1,-3.17049E-1,1.4038414E0,-9.55832E-1,-1.6991172E-2,-3.0372182E-1,4.4279215E-1,1.0746356E0,1.0644838E-1,-6.717356E-1,-2.2769687E-1,2.5396216E0,7.4251056E-1,4.4143477E-1,-5.9411436E-1,6.8147905E-2,1.9409145E0,-4.190085E-1,9.3735E-1,-7.6735276E-1,4.407793E-2,3.4443638E-1,-7.403558E-2,1.2407445E0,-4.0887013E-1,9.2846864E-1,-4.2517784E-1,2.0950716E0,-7.5235315E-2,3.8768876E-1,-8.1807727E-1,-7.1076405E-1,3.980472E-1,-9.445587E-1,-1.3714412E-1,-7.0440614E-1,4.2883262E-1,-8.2864624E-1,-1.0272188E-1,1.1795075E0,-3.2505724E-1,-2.1511953E-1,-9.371774E-1,-2.070532E-1,1.6806539E0,2.4382915E0,8.701057E-2,-7.180142E-1,2.3449047E-1],"categories":[],"categories_nodes":[],"categories_segments":[],"categories_sizes":[],"default_left":[1,1,1,1,1,1,1,1,1,1,1,1,1,1,1,1,1,0,1,1,1,1,1,1,1,0,1,1,1,1,1,1,0,0,0,1,1,1,1,1,1,1,0,1,1,0,1,1,1,1,1,1,0,0,0,1,1,1,1,0,0,0,0,0,0,0,0,0,0,0,0,0,0,0,0,0,0,0,0,0,0,0,0,0,0,0,0,0,0,0,0,0,0,0,0,0,0,0,0],"id":13,"left_children":[1,3,5,7,9,11,13,15,17,19,21,23,25,27,29,31,33,-1,35,37,39,41,43,45,47,-1,49,51,53,55,57,59,-1,-1,-1,61,63,65,67,69,71,73,-1,75,77,-1,79,81,83,85,87,89,-1,-1,-1,91,93,95,97,-1,-1,-1,-1,-1,-1,-1,-1,-1,-1,-1,-1,-1,-1,-1,-1,-1,-1,-1,-1,-1,-1,-1,-1,-1,-1,-1,-1,-1,-1,-1,-1,-1,-1,-1,-1,-1,-1,-1,-1],"loss_changes":[2.12588E1,6.1979637E0,6.9330673E0,8.0223675E0,4.744236E0,4.8343964E0,6.833824E0,3.1487942E0,7.159683E0,5.0717134E0,5.1445208E0,9.530754E-1,1.1363013E1,5.330391E0,6.3233776E0,3.073965E0,2.1410046E0,0E0,7.5340157E0,6.9767566E0,6.0893445E0,4.2278214E0,6.1122384E0,3.159598E0,5.2596855E-1,0E0,5.1800766E0,7.208168E0,8.0413914E-1,4.5489864E0,4.489306E0,2.5726166E0,0E0,0E0,0E0,4.201126E-2,1.1168399E0,4.006672E0,2.829329E0,3.0795865E0,6.6316185E0,4.0312967E0,0E0,3.166278E0,7.129493E0,0E0,2.8770313E0,2.7580652E0,5.5651665E-1,3.626171E0,4.4572773E0,5.0313797E0,0E0,0E0,0E0,4.376412E0,7.7384105E0,7.080489E0,4.9536037E0,0E0,0E0,0E0,0E0,0E0,0E0,0E0,0E0,0E0,0E0,0E0,0E0,0E0,0E0,0E0,0E0,0E0,0E0,0E0,0E0,0E0,0E0,0E0,0E0,0E0,0E0,0E0,0E0,0E0,0E0,0E0,0E0,0E0,0E0,0E0,0E0,0E0,0E0,0E0,0E0],"parents":[2147483647,0,0,1,1,2,2,3,3,4,4,5,5,6,6,7,7,8,8,9,9,10,10,11,11,12,12,13,13,14,14,15,15,16,16,18,18,19,19,20,20,21,21,22,22,23,23,24,24,26,26,27,27,28,28,29,29,30,30,31,31,35,35,36,36,37,37,38,38,39,39,40,40,41,41,43,43,44,44,46,46,47,47,48,48,49,49,50,50,51,51,55,55,56,56,57,57,58,58],"right_children":[2,4,6,8,10,12,14,16,18,20,22,24,26,28,30,32,34,-1,36,38,40,42,44,46,48,-1,50,52,54,56,58,60,-1,-1,-1,62,64,66,68,70,72,74,-1,76,78,-1,80,82,84,86,88,90,-1,-1,-1,92,94,96,98,-1,-1,-1,-1,-1,-1,-1,-1,-1,-1,-1,-1,-1,-1,-1,-1,-1,-1,-1,-1,-1,-1,-1,-1,-1,-1,-1,-1,-1,-1,-1,-1,-1,-1,-1,-1,-1,-1,-1,-1],"split_conditions":[6.8533887E2,7.993624E-1,8.1602806E-1,3.865937E5,6.8251263E2,2.2196094E5,5E-1,6.790928E2,9.5E0,8.049799E-1,1.8947803E5,4.5E0,2.2413825E5,8.2243646E2,2.776069E-1,6.7831177E2,6.846931E2,-2.0642257E-1,4.1367494E5,4.25E1,8.1679285E-1,3.3827406E-1,3.126963E5,1.19145445E5,6.555842E-2,5.222674E-1,1.25E1,8.1985675E2,3.679737E5,8.031205E2,1.3639666E5,6.886847E-1,2.91611E-1,-2.8391227E-1,7.565117E-2,2.5867885E-1,2.4121471E-1,2.3369794E5,3.3679534E5,2.9469848E-1,5.836995E2,6.6595495E-2,7.25477E-1,8.208777E-1,3.3942762E5,2.1598706E-1,7.1123075E-1,6.448479E-2,8.7245874E-2,1.5E0,1.65E1,8.16682E-1,4.2115244E-1,-2.867496E-1,-5.097352E-3,7.76883E2,2.3634848E-1,8.634864E-1,8.459029E-1,-2.0152068E-1,-6.830906E-2,7.6188654E-1,2.2275318E-1,1.3243043E-1,-1.7823431E-1,2.0444373E-2,5.822744E-1,-1.2570256E-1,2.81205E-1,-2.3020583E-1,1.3223379E-2,1.0333092E-1,-2.2210674E-2,3.7222335E-1,-1.2266105E-1,2.785406E-1,-1.2755336E-1,6.285215E-1,-2.2570595E-2,1.1630663E-1,-2.4542318E-1,-2.1322922E-1,1.19414166E-1,-2.833676E-1,-4.114324E-2,-2.1132185E-1,1.2864979E-1,-2.4859388E-1,-3.0816564E-2,3.5385227E-1,-9.751718E-2,-6.453586E-2,-2.8115323E-1,-6.2115964E-2,5.041962E-1,7.314875E-1,2.6103172E-2,-2.1540426E-1,7.0347145E-2],"split_indices":[0,2,2,4,0,4,7,0,6,2,4,6,4,0,1,0,0,0,4,3,2,1,4,4,5,0,6,0,4,0,4,2,0,0,0,1,1,4,4,1,0,5,0,2,4,0,2,5,5,7,3,2,0,0,0,0,1,2,2,0,0,0,0,0,0,0,0,0,0,0,0,0,0,0,0,0,0,0,0,0,0,0,0,0,0,0,0,0,0,0,0,0,0,0,0,0,0,0,0],"split_type":[0,0,0,0,0,0,0,0,0,0,0,0,0,0,0,0,0,0,0,0,0,0,0,0,0,0,0,0,0,0,0,0,0,0,0,0,0,0,0,0,0,0,0,0,0,0,0,0,0,0,0,0,0,0,0,0,0,0,0,0,0,0,0,0,0,0,0,0,0,0,0,0,0,0,0,0,0,0,0,0,0,0,0,0,0,0,0,0,0,0,0,0,0,0,0,0,0,0,0],"sum_hessian":[1.3847034E3,6.628319E2,7.218715E2,1.3328932E2,5.2954254E2,1.8087085E2,5.410007E2,1.265174E2,6.771919E0,5.0679852E2,2.2744028E1,6.3684963E1,1.1718588E2,4.035018E2,1.3749889E2,1.1484818E2,1.1669224E1,1.8880191E0,4.8838997E0,1.1176934E1,4.956216E2,5.244139E0,1.749989E1,1.1869897E1,5.1815067E1,1.5392507E0,1.1564664E2,3.88305E2,1.51967945E1,8.875465E1,4.8744244E1,1.13837585E2,1.0105975E0,1.0377148E1,1.292076E0,2.6783626E0,2.205537E0,4.719491E0,6.457443E0,2.292503E1,4.7269656E2,4.2175517E0,1.0265875E0,1.256969E1,4.9301987E0,1.3062786E0,1.0563619E1,2.6425941E1,2.5389126E1,5.1213516E1,6.443312E1,3.8682352E2,1.4814874E0,1.4187262E1,1.0095321E0,8.056736E1,8.187286E0,4.414872E0,4.4329372E1,1.4560272E1,9.927731E1,1.5155182E0,1.1628444E0,1.0567418E0,1.1487952E0,1.7009256E0,3.0185654E0,5.4264083E0,1.0310351E0,1.6711372E1,6.2136574E0,4.0506527E1,4.3219003E2,2.0779397E0,2.1396122E0,1.0482562E0,1.1521434E1,1.8805814E0,3.0496173E0,1.845182E0,8.718436E0,2.4597223E1,1.8287177E0,2.412121E1,1.2679158E0,4.886066E1,2.3528578E0,9.072916E0,5.5360203E1,1.2802829E0,3.8554324E2,7.185632E1,8.711041E0,5.9148674E0,2.272419E0,1.2374411E0,3.1774313E0,5.339662E0,3.8989708E1],"tree_param":{"num_deleted":"0","num_feature":"9","num_nodes":"99","size_leaf_vector":"0"}},{"base_weights":[-1.6796342E-1,-5.0160337E-2,-2.516505E-1,-2.0343995E-1,9.91934E-3,-3.8953844E-1,-1.7666507E-1,-1.1592896E-1,-4.394595E-1,3.038999E-1,-5.5146467E-2,-4.3032476E-1,3.429637E-2,-1.1159641E-1,-4.3281898E-1,-1.7258349E-1,7.6622826E-1,-3.1770494E-2,-6.1667705E-1,7.596585E-1,1.7477787E-1,-4.6134987E-1,5.9585925E-3,-2.7240896E-1,-5.090012E-1,7.557515E-1,-4.417643E-1,6.417973E-1,-1.3222994E-1,2.2951797E-1,-4.8483887E-1,-8.234566E-1,-1.1755668E-1,-4.7241953E-1,1.5355487E0,-3.4298286E-1,1.8696221E0,-8.2708895E-1,-9.176885E-2,2.658055E-1,1.7312684E0,-5.34146E-1,3.441752E-1,8.8291204E-1,-5.361941E-1,1.9747932E-1,-9.970556E-2,1.1638597E-1,-4.2624375E-1,-5.181019E-1,4.7042474E-1,1.2019457E0,-6.878206E-1,5.928936E-1,-5.9524643E-1,1.3726017E0,-1.8320553E-1,-1.9833785E-1,5.126569E-2,-3.4781122E-1,1.2690678E0,-5.9565157E-1,-2.0616792E-1,-7.450799E-2,-9.210418E-1,5.608809E-1,-1.899359E-1,-6.3771296E-1,-3.7316024E-2,1.2417374E-1,2.9701042E0,-7.105247E-1,4.598409E-1,-9.472526E-1,-3.3238032E-1,6.22886E-1,-6.901776E-1,8.672409E-1,-3.9480868E-1,2.2006176E0,-5.5566017E-2,4.5245692E-1,-6.761292E-1,-1.020844E-1,5.280996E-1,-6.8499666E-1,-1.6372167E-1,1.3555017E0,1.24712355E-1,-2.530776E-1,5.7206042E-2,-3.7764568E-2,1.1333684E0,-5.843695E-1,-1.3781288E-1,-6.709329E-2,-5.390432E-1,8.214365E-2,1.7152684E0,4.845333E-1,-7.173454E-1,-5.1018946E-2,1.7052524E0,-7.135368E-1,3.393538E-1,6.9640595E-1,-2.1620281E-1,-4.8489273E-1,1.3789558E-1,-8.036356E-1,6.698891E-1,-2.5372198E-2,1.9310879E0,-3.974291E-1,-7.879882E-1,-7.1016425E-1,5.01976E-2],"categories":[],"categories_nodes":[],"categories_segments":[],"categories_sizes":[],"default_left":[1,1,1,1,1,1,1,1,1,1,1,1,1,1,1,1,1,1,1,1,1,1,1,1,1,1,1,1,1,1,1,1,1,1,1,1,0,1,1,1,1,1,1,0,1,1,1,1,1,1,0,1,0,0,1,1,1,1,1,1,1,1,1,0,0,0,0,0,0,0,0,0,0,0,0,0,0,0,0,0,0,0,0,0,0,0,0,0,0,0,0,0,0,0,0,0,0,0,0,0,0,0,0,0,0,0,0,0,0,0,0,0,0,0,0,0,0],"id":14,"left_children":[1,3,5,7,9,11,13,15,17,19,21,23,25,27,29,31,33,35,37,39,41,43,45,47,49,51,53,55,57,59,61,63,65,67,69,71,-1,73,75,77,79,81,83,-1,85,87,89,91,93,95,-1,97,-1,-1,99,101,103,105,107,109,111,113,115,-1,-1,-1,-1,-1,-1,-1,-1,-1,-1,-1,-1,-1,-1,-1,-1,-1,-1,-1,-1,-1,-1,-1,-1,-1,-1,-1,-1,-1,-1,-1,-1,-1,-1,-1,-1,-1,-1,-1,-1,-1,-1,-1,-1,-1,-1,-1,-1,-1,-1,-1,-1,-1,-1],"loss_changes":[1.2821533E1,4.992825E0,7.7983055E0,3.1020083E0,7.4823704E0,4.6335983E0,8.196878E0,5.765833E0,2.9377718E0,4.038548E0,7.9557586E0,2.8904953E0,8.707773E0,6.238028E0,3.5518703E0,3.725955E0,7.382706E0,8.6038065E0,3.0692225E0,6.9050674E0,6.972847E0,4.689975E0,5.6759686E0,5.027484E0,1.6839676E0,7.307433E0,2.7857316E0,6.716219E0,4.6937885E0,5.212961E0,2.7462196E0,5.273018E-1,4.996439E0,2.2370642E-1,8.833094E0,3.9881368E0,0E0,8.8613987E-1,4.395684E0,4.855223E0,4.308282E0,1.8881409E0,3.8490114E0,0E0,2.122676E0,8.233351E0,4.3653555E0,3.864894E0,2.649006E0,1.4803734E0,0E0,4.486286E0,0E0,0E0,2.1722255E0,2.8354006E0,1.8824381E0,4.6909466E0,4.8534718E0,3.2737002E0,2.6660504E0,2.2010193E0,3.6486406E0,0E0,0E0,0E0,0E0,0E0,0E0,0E0,0E0,0E0,0E0,0E0,0E0,0E0,0E0,0E0,0E0,0E0,0E0,0E0,0E0,0E0,0E0,0E0,0E0,0E0,0E0,0E0,0E0,0E0,0E0,0E0,0E0,0E0,0E0,0E0,0E0,0E0,0E0,0E0,0E0,0E0,0E0,0E0,0E0,0E0,0E0,0E0,0E0,0E0,0E0,0E0,0E0,0E0,0E0],"parents":[2147483647,0,0,1,1,2,2,3,3,4,4,5,5,6,6,7,7,8,8,9,9,10,10,11,11,12,12,13,13,14,14,15,15,16,16,17,17,18,18,19,19,20,20,21,21,22,22,23,23,24,24,25,25,26,26,27,27,28,28,29,29,30,30,31,31,32,32,33,33,34,34,35,35,37,37,38,38,39,39,40,40,41,41,42,42,44,44,45,45,46,46,47,47,48,48,49,49,51,51,54,54,55,55,56,56,57,57,58,58,59,59,60,60,61,61,62,62],"right_children":[2,4,6,8,10,12,14,16,18,20,22,24,26,28,30,32,34,36,38,40,42,44,46,48,50,52,54,56,58,60,62,64,66,68,70,72,-1,74,76,78,80,82,84,-1,86,88,90,92,94,96,-1,98,-1,-1,100,102,104,106,108,110,112,114,116,-1,-1,-1,-1,-1,-1,-1,-1,-1,-1,-1,-1,-1,-1,-1,-1,-1,-1,-1,-1,-1,-1,-1,-1,-1,-1,-1,-1,-1,-1,-1,-1,-1,-1,-1,-1,-1,-1,-1,-1,-1,-1,-1,-1,-1,-1,-1,-1,-1,-1,-1,-1,-1,-1],"split_conditions":[6.7464734E2,6.1671216E2,2.0809561E-1,6.064594E2,6.307532E2,3.6119125E5,2.35E1,6.0502905E2,4.15E1,5.6379348E-2,7.699009E-1,9.5E0,4.45E1,2.1130447E-1,2.1819595E-1,1.4152732E-1,5.4E1,3.85E1,9.65E1,5.4178603E-2,6.1224002E-2,4.5E0,4.05E1,1.9448516E5,9.0612635E-2,7.3186174E-2,7.429306E-1,2.4025297E5,5E-1,2.1496242E-1,3.2976997E-1,1.7229264E5,1.6499627E-1,6.0583655E2,2.740663E5,5E-1,5.608867E-1,6.146148E2,1.055E2,2.5400278E5,9.038511E-1,1.5460462E5,3.75E1,2.6487362E-1,5E-1,1.1483481E5,6.569497E-2,1.8761238E5,2.836612E5,6.787097E2,1.4112742E-1,1.65E1,-2.063462E-1,1.7786808E-1,3.659183E5,5.6139756E-2,2.9871522E5,2.5E0,7.8927696E-1,8.7E1,2.7770175E5,6.535286E-2,8.427064E-1,-2.2352397E-2,-2.7631256E-1,1.6826427E-1,-5.698077E-2,-1.913139E-1,-1.11948075E-2,3.7252124E-2,8.910313E-1,-2.1315742E-1,1.3795227E-1,-2.8417578E-1,-9.97141E-2,1.868658E-1,-2.0705329E-1,2.6017228E-1,-1.1844261E-1,6.601853E-1,-1.6669806E-2,1.3573708E-1,-2.0283878E-1,-3.0625321E-2,1.5842989E-1,-2.0549901E-1,-4.9116503E-2,4.066505E-1,3.741371E-2,-7.592328E-2,1.7161813E-2,-1.1329371E-2,3.4001052E-1,-1.7531085E-1,-4.1343868E-2,-2.0127987E-2,-1.6171296E-1,2.4643095E-2,5.1458055E-1,1.4536E-1,-2.1520363E-1,-1.5305684E-2,5.1157576E-1,-2.1406105E-1,1.0180614E-1,2.0892179E-1,-6.486084E-2,-1.4546782E-1,4.136868E-2,-2.4109069E-1,2.0096673E-1,-7.61166E-3,5.793264E-1,-1.19228736E-1,-2.3639646E-1,-2.1304928E-1,1.5059281E-2],"split_indices":[0,0,1,0,0,4,6,0,3,5,2,6,3,1,1,1,3,3,3,5,5,3,3,4,5,5,2,4,7,1,1,4,1,0,4,7,0,0,3,4,2,4,3,0,7,4,5,4,4,0,0,3,0,0,4,5,4,3,2,3,4,5,2,0,0,0,0,0,0,0,0,0,0,0,0,0,0,0,0,0,0,0,0,0,0,0,0,0,0,0,0,0,0,0,0,0,0,0,0,0,0,0,0,0,0,0,0,0,0,0,0,0,0,0,0,0,0],"split_type":[0,0,0,0,0,0,0,0,0,0,0,0,0,0,0,0,0,0,0,0,0,0,0,0,0,0,0,0,0,0,0,0,0,0,0,0,0,0,0,0,0,0,0,0,0,0,0,0,0,0,0,0,0,0,0,0,0,0,0,0,0,0,0,0,0,0,0,0,0,0,0,0,0,0,0,0,0,0,0,0,0,0,0,0,0,0,0,0,0,0,0,0,0,0,0,0,0,0,0,0,0,0,0,0,0,0,0,0,0,0,0,0,0,0,0,0,0],"sum_hessian":[1.3008236E3,5.4094946E2,7.598742E2,1.5165363E2,3.8929584E2,2.661909E2,4.9368332E2,1.1172105E2,3.993258E1,6.988238E1,3.1941345E2,2.4280959E2,2.3381287E1,3.948249E2,9.885842E1,1.05734825E2,5.986215E0,1.2456247E1,2.747633E1,1.4349625E1,5.553275E1,4.090988E1,2.7850357E2,8.222788E1,1.6058171E2,9.061442E0,1.4319844E1,9.722478E0,3.8510242E2,6.9504566E0,9.190797E1,7.1537347E0,9.858109E1,2.4413824E0,3.5448327E0,1.1408555E1,1.0476921E0,1.9203026E1,8.273305E0,1.0358265E1,3.9913604E0,1.0295038E1,4.5237713E1,1.5881828E0,3.9321697E1,9.8713066E1,1.7979051E2,2.3380507E1,5.8847378E1,1.5957002E2,1.0116787E0,7.0497985E0,2.0116436E0,1.4799842E0,1.283986E1,4.8035984E0,4.91888E0,2.830479E2,1.0205449E2,4.8965225E0,2.053934E0,6.494521E1,2.6962755E1,1.0279473E0,6.1257873E0,8.852653E0,8.972844E1,1.4317938E0,1.0095887E0,2.3345575E0,1.210275E0,7.904674E0,3.5038812E0,1.4714208E1,4.4888177E0,3.7517917E0,4.5215135E0,5.2582636E0,5.100001E0,2.9776464E0,1.0137141E0,1.020081E0,9.274958E0,1.3332868E1,3.1904844E1,2.7497433E1,1.1824266E1,4.793928E0,9.3919136E1,9.061081E1,8.91797E1,2.1139174E1,2.2413337E0,3.73468E1,2.1500578E1,7.266972E0,1.5230305E2,2.5805063E0,4.469292E0,1.0028465E0,1.1837013E1,1.0701945E0,3.733404E0,2.2599015E0,2.6589785E0,4.797344E0,2.7825058E2,1.3556303E1,8.849819E1,3.527092E0,1.3694304E0,1.0204111E0,1.0335231E0,3.3493282E1,3.1451927E1,8.494011E0,1.8468744E1],"tree_param":{"num_deleted":"0","num_feature":"9","num_nodes":"117","size_leaf_vector":"0"}},{"base_weights":[-1.5169954E-1,-1.24856144E-1,-3.7466657E-1,-8.5031253E-1,-1.1737705E-1,-6.1217695E-1,-1.3353357E-1,-9.216794E-1,-2.92167E-1,-1.7440037E-1,-2.9412257E-2,-7.2159654E-1,-2.8359262E-2,7.18367E-1,-2.0947142E-1,2.5232202E-1,-1.9119735E-1,3.056258E-1,-9.0754524E-2,-8.725022E-1,-4.675946E-1,7.792704E-1,-5.5693513E-1,1.423854E0,-6.384935E-1,-3.7192336E-1,1.9174339E-1,6.0429964E-2,1.1785799E0,-1.4333397E-1,-3.454941E-1,1.9373155E-1,1.8431047E0,-5.1247686E-2,-4.5732626E-1,-1.9829635E-2,-8.981915E-1,9.8117787E-1,-5.779625E-1,-3.7927926E-1,1.7742709E0,-8.2169425E-1,2.3909165E-2,-2.0481537E-1,2.40709E0,-6.867798E-1,-1.05767734E-1,4.8657522E-1,-4.1951308E-1,-8.715583E-2,9.0528196E-1,-1.0806188E-2,2.0362258E0,-4.062539E-1,-1.0451048E-1,-3.8432956E-1,4.9015144E-1,5.2346736E-2,8.774912E-1,-1.5146877E-1,2.698002E0,-8.5066564E-2,3.9516297E-1,-5.73823E-1,3.7555984E-1,-7.473328E-1,8.8821456E-2,-1.7845092E-2,-5.408912E-1,5.16873E-1,-5.394544E-1,-7.978856E-1,-4.609295E-2,3.3665475E-1,-3.142004E-1,-4.7917473E-1,7.8008366E-1,2.569492E-1,-7.9967695E-1],"categories":[],"categories_nodes":[],"categories_segments":[],"categories_sizes":[],"default_left":[1,1,1,1,1,1,1,0,0,1,1,1,1,1,1,1,1,1,1,1,1,1,1,1,0,1,1,1,1,1,1,1,1,1,1,0,0,0,1,1,0,0,1,0,0,1,1,1,1,0,0,0,0,0,0,0,0,0,0,0,0,0,0,0,0,0,0,0,0,0,0,0,0,0,0,0,0,0,0],"id":15,"left_children":[1,3,5,7,9,11,13,-1,-1,15,17,19,21,23,25,27,29,31,33,35,37,39,41,43,-1,45,47,49,51,53,55,57,59,61,63,-1,-1,-1,65,67,-1,-1,69,-1,-1,71,73,75,77,-1,-1,-1,-1,-1,-1,-1,-1,-1,-1,-1,-1,-1,-1,-1,-1,-1,-1,-1,-1,-1,-1,-1,-1,-1,-1,-1,-1,-1,-1],"loss_changes":[7.403185E0,5.9362354E0,7.5498695E0,1.7652512E-1,5.5239973E0,4.250105E0,4.5107656E0,0E0,0E0,4.8402405E0,8.962284E0,1.7484512E0,5.382855E0,6.4057703E0,4.155317E0,4.5057616E0,4.7051105E0,1.1256316E1,5.309203E0,7.2994614E-1,4.264264E0,6.43978E0,1.1868751E0,7.038541E0,0E0,3.693418E0,3.5775402E0,2.8701181E0,4.474815E0,4.990739E0,5.1120644E0,6.14538E0,8.017367E0,5.0688834E0,3.6792011E0,0E0,0E0,0E0,2.5638614E0,1.7348379E-1,0E0,0E0,1.208679E0,0E0,0E0,1.4157171E0,2.4605687E0,4.0844345E0,1.9099313E0,0E0,0E0,0E0,0E0,0E0,0E0,0E0,0E0,0E0,0E0,0E0,0E0,0E0,0E0,0E0,0E0,0E0,0E0,0E0,0E0,0E0,0E0,0E0,0E0,0E0,0E0,0E0,0E0,0E0,0E0],"parents":[2147483647,0,0,1,1,2,2,3,3,4,4,5,5,6,6,9,9,10,10,11,11,12,12,13,13,14,14,15,15,16,16,17,17,18,18,19,19,20,20,21,21,22,22,23,23,25,25,26,26,27,27,28,28,29,29,30,30,31,31,32,32,33,33,34,34,38,38,39,39,42,42,45,45,46,46,47,47,48,48],"right_children":[2,4,6,8,10,12,14,-1,-1,16,18,20,22,24,26,28,30,32,34,36,38,40,42,44,-1,46,48,50,52,54,56,58,60,62,64,-1,-1,-1,66,68,-1,-1,70,-1,-1,72,74,76,78,-1,-1,-1,-1,-1,-1,-1,-1,-1,-1,-1,-1,-1,-1,-1,-1,-1,-1,-1,-1,-1,-1,-1,-1,-1,-1,-1,-1,-1,-1],"split_conditions":[7.6821704E2,6.536975E-1,8.7989855E-1,9.75E1,2.6933277E-1,8.2586365E2,8.8639337E-1,-2.7650383E-1,-8.7650105E-2,5.775801E2,2.8506327E-1,8.3398867E-1,7.9293054E-1,1.75E1,2.05E1,5.739247E2,2.3420708E-1,2.8429872E-1,1.085E2,6.5627146E-1,8.363286E-1,2.5770784E5,5E-1,8.5E0,-1.9154805E-1,5.25E1,7.85E1,3.6505322E5,6.75E1,1.55E1,3.8940756E5,1.015E2,4.85E1,1.015E2,7.4186914E2,-5.9488905E-3,-2.6945746E-1,2.9435337E-1,3.2000253E5,1.8877303E5,5.322813E-1,-2.4650829E-1,8.483008E-1,-6.1444614E-2,7.22127E-1,9.6434176E-1,7.7949976E2,1.55E1,2.1350834E-1,-2.6146749E-2,2.715846E-1,-3.2418566E-3,6.1086774E-1,-1.2187617E-1,-3.1353146E-2,-1.15298875E-1,1.4704543E-1,1.570402E-2,2.6324737E-1,-4.5440633E-2,8.094007E-1,-2.551997E-2,1.1854889E-1,-1.721469E-1,1.12667955E-1,-2.2419985E-1,2.6646437E-2,-5.353528E-3,-1.6226736E-1,1.550619E-1,-1.6183633E-1,-2.3936568E-1,-1.38278855E-2,1.0099643E-1,-9.426013E-2,-1.4375243E-1,2.340251E-1,7.708476E-2,-2.3990309E-1],"split_indices":[0,2,2,3,1,0,2,0,0,0,1,2,2,6,6,0,1,1,3,2,2,4,7,6,0,3,3,4,3,3,4,3,3,3,0,0,0,0,4,4,0,0,2,0,0,2,0,3,1,0,0,0,0,0,0,0,0,0,0,0,0,0,0,0,0,0,0,0,0,0,0,0,0,0,0,0,0,0,0],"split_type":[0,0,0,0,0,0,0,0,0,0,0,0,0,0,0,0,0,0,0,0,0,0,0,0,0,0,0,0,0,0,0,0,0,0,0,0,0,0,0,0,0,0,0,0,0,0,0,0,0,0,0,0,0,0,0,0,0,0,0,0,0,0,0,0,0,0,0,0,0,0,0,0,0,0,0,0,0,0,0],"sum_hessian":[1.2437333E3,1.1114801E3,1.3225308E2,1.0191931E1,1.1012882E3,6.585182E1,6.640125E1,8.4590025E0,1.7329282E0,6.6755927E2,4.3372897E2,5.5259117E1,1.0592708E1,4.7421403E0,6.1659115E1,2.4750782E1,6.428085E2,6.650591E1,3.6722305E2,3.3137E1,2.2122114E1,4.002644E0,6.5900636E0,3.0874665E0,1.6546737E0,4.3940575E1,1.771854E1,2.138559E1,3.365193E0,4.9208954E2,1.5071893E2,6.304374E1,3.4621754E0,3.3252533E2,3.4697723E1,1.0209762E0,3.2116028E1,1.0074538E0,2.111466E1,2.1352437E0,1.8674005E0,4.2418833E0,2.3481805E0,1.460286E0,1.6271805E0,1.9404772E1,2.4535803E1,1.2090713E1,5.627827E0,1.89688E1,2.4167893E0,1.8236076E0,1.5415853E0,6.209647E1,4.2999307E2,1.4454164E2,6.17729E0,5.313357E1,9.910169E0,1.2855839E0,2.1765916E0,3.0986057E2,2.2664766E1,3.0712917E1,3.9848077E0,1.6741371E1,4.373289E0,1.0028518E0,1.1323917E0,1.2963499E0,1.0518308E0,1.6327885E1,3.0768886E0,7.660445E0,1.6875357E1,2.670667E0,9.420045E0,2.1414492E0,3.486378E0],"tree_param":{"num_deleted":"0","num_feature":"9","num_nodes":"79","size_leaf_vector":"0"}},{"base_weights":[-1.1634538E-1,-1.6140933E-1,1.50750745E-2,-4.8757907E-2,-2.4319436E-1,-5.7828975E-1,4.5435622E-2,5.1559913E-3,-5.364367E-1,-3.4713897E-1,-1.8282358E-1,1.7776576E-1,-7.891129E-1,1.8657912E-1,-8.5963905E-2,-5.826063E-3,1.6867367E0,4.794102E-1,-6.7793804E-1,-1.1667635E-1,-4.8667458E-1,3.544709E-1,-2.1862294E-1,-6.8043107E-1,1.1939551E0,-1.0098927E-1,-8.5454416E-1,-1.2106138E-3,4.6759742E-1,-1.8174784E-2,-6.385716E-1,2.1836774E-2,-5.782002E-1,-6.508772E-1,1.1766748E0,-8.602553E-1,-1.3903037E-1,-2.9215112E-1,4.9859977E-1,-5.0390846E-1,3.712623E-1,5.9920985E-1,-6.0385114E-1,-2.5411072E-1,1.5485509E-1,-9.22623E-1,-3.1411785E-1,-4.0576363E-1,2.691937E-1,1.2363706E0,3.4344792E-2,1.0880626E0,-5.9186626E-2,-7.9957753E-1,-1.2156413E-1,-1.1966505E-2,6.293037E-1,-7.949457E-1,2.4994731E-2,2.455166E-1,1.6413615E0,-9.212154E-1,-3.863661E-1,-3.805899E-1,9.641403E-1,3.4295473E-1,-4.3275246E-1,7.7204114E-1,-3.6803293E-1,-3.952004E-1,-6.567049E-1,3.39235E-1,2.2719831E0,-7.559946E-1,-2.2824673E-2,-2.0953228E-1,-4.9040404E-1,-1.1988347E-1,1.015171E0,-4.7075516E-1,7.361634E-1,1.254013E0,1.1469028E-1,1.781427E-1,1.7857405E0,1.3282267E0,-1.092095E-1,1.452784E-1,1.7882801E0,1.1015371E0,-8.379238E-2,1.8687049E-1,-9.5004785E-1,-7.197157E-1,4.8696226E-1],"categories":[],"categories_nodes":[],"categories_segments":[],"categories_sizes":[],"default_left":[1,1,1,1,1,1,1,1,1,1,1,1,1,1,1,1,0,1,1,1,1,1,1,0,0,0,1,1,1,1,1,1,1,0,1,1,1,1,1,1,0,1,1,1,1,0,0,1,1,1,1,1,1,1,1,0,0,0,0,0,0,0,0,0,0,0,0,0,0,0,0,0,0,0,0,0,0,0,0,0,0,0,0,0,0,0,0,0,0,0,0,0,0,0,0],"id":16,"left_children":[1,3,5,7,9,11,13,15,17,19,21,23,25,27,29,31,-1,33,35,37,39,41,43,-1,-1,-1,45,47,49,51,53,55,57,-1,59,61,63,65,67,69,-1,71,73,75,77,-1,-1,79,81,83,85,87,89,91,93,-1,-1,-1,-1,-1,-1,-1,-1,-1,-1,-1,-1,-1,-1,-1,-1,-1,-1,-1,-1,-1,-1,-1,-1,-1,-1,-1,-1,-1,-1,-1,-1,-1,-1,-1,-1,-1,-1,-1,-1],"loss_changes":[7.0832577E0,8.191666E0,5.5425396E0,9.88303E0,3.172224E0,2.527645E0,5.435759E0,6.276914E0,5.703511E0,5.9996033E0,6.3921986E0,4.3722553E0,4.49306E-1,7.4523206E0,5.6832805E0,5.3668423E0,0E0,4.832937E0,3.1479473E0,7.9559627E0,1.9168949E0,5.261133E0,4.1269436E0,0E0,0E0,0E0,1.0491943E-1,9.477693E0,1.879785E1,6.2545576E0,1.2830906E0,6.6510468E0,2.0628219E0,0E0,1.1321344E0,3.5637474E-1,2.9250817E0,5.2310224E0,4.1758337E0,1.6525288E0,0E0,6.6837597E0,4.0242445E-1,2.8679657E0,6.5940437E0,0E0,0E0,2.9224653E0,7.758047E0,1.1518055E1,7.055712E0,2.9941483E0,3.8768995E0,2.0277119E0,2.2129908E0,0E0,0E0,0E0,0E0,0E0,0E0,0E0,0E0,0E0,0E0,0E0,0E0,0E0,0E0,0E0,0E0,0E0,0E0,0E0,0E0,0E0,0E0,0E0,0E0,0E0,0E0,0E0,0E0,0E0,0E0,0E0,0E0,0E0,0E0,0E0,0E0,0E0,0E0,0E0,0E0],"parents":[2147483647,0,0,1,1,2,2,3,3,4,4,5,5,6,6,7,7,8,8,9,9,10,10,11,11,12,12,13,13,14,14,15,15,17,17,18,18,19,19,20,20,21,21,22,22,26,26,27,27,28,28,29,29,30,30,31,31,32,32,34,34,35,35,36,36,37,37,38,38,39,39,41,41,42,42,43,43,44,44,47,47,48,48,49,49,50,50,51,51,52,52,53,53,54,54],"right_children":[2,4,6,8,10,12,14,16,18,20,22,24,26,28,30,32,-1,34,36,38,40,42,44,-1,-1,-1,46,48,50,52,54,56,58,-1,60,62,64,66,68,70,-1,72,74,76,78,-1,-1,80,82,84,86,88,90,92,94,-1,-1,-1,-1,-1,-1,-1,-1,-1,-1,-1,-1,-1,-1,-1,-1,-1,-1,-1,-1,-1,-1,-1,-1,-1,-1,-1,-1,-1,-1,-1,-1,-1,-1,-1,-1,-1,-1,-1,-1],"split_conditions":[9.265584E-1,6.7275183E2,1.3122591E-1,2.65E1,2.1326259E-1,1.12092145E-1,2.4493661E5,6.726565E2,7.3986065E-1,2.2775053E5,2.2041124E-1,2.6306338E5,2.5E0,1.75E1,9.7998935E-1,9.209103E-1,5.06021E-1,6.94021E-1,6.5752014E2,2.0886925E5,4.3899903E5,1.015E2,9.156918E-1,-2.0412932E-1,3.5818654E-1,-3.0296782E-2,1.035E2,4.85E1,4.25E1,5.7299634E2,5E-1,9.144148E-1,5E-1,-1.9526316E-1,5E-1,1.045E2,3.307258E-1,1.1620097E5,9.45E1,7.25E1,1.113787E-1,9.55E1,7.4318164E2,8.946266E-1,1.5E0,-2.767869E-1,-9.423536E-2,9.879369E-1,9.320852E-1,9.4517183E-1,1.85E1,9.5537007E-1,1.368174E-1,1.6314955E-1,6.95E1,-3.5899517E-3,1.8879111E-1,-2.3848373E-1,7.4984194E-3,7.365498E-2,4.9240845E-1,-2.7636462E-1,-1.1590984E-1,-1.1417697E-1,2.892421E-1,1.0288642E-1,-1.2982574E-1,2.3161235E-1,-1.10409886E-1,-1.1856013E-1,-1.9701149E-1,1.01770505E-1,6.8159497E-1,-2.267984E-1,-6.847402E-3,-6.2859684E-2,-1.4712122E-1,-3.5965044E-2,3.0455133E-1,-1.4122656E-1,2.2084902E-1,3.762039E-1,3.4407087E-2,5.344281E-2,5.357222E-1,3.9846802E-1,-3.276285E-2,4.358352E-2,5.3648406E-1,3.3046114E-1,-2.5137715E-2,5.606115E-2,-2.8501436E-1,-2.1591473E-1,1.4608869E-1],"split_indices":[2,0,1,6,1,1,4,0,2,4,1,4,6,6,2,2,0,2,0,4,4,3,2,0,0,0,3,3,3,0,7,2,7,0,7,3,1,4,3,3,0,3,0,2,8,0,0,2,2,2,6,2,1,1,3,0,0,0,0,0,0,0,0,0,0,0,0,0,0,0,0,0,0,0,0,0,0,0,0,0,0,0,0,0,0,0,0,0,0,0,0,0,0,0,0],"split_type":[0,0,0,0,0,0,0,0,0,0,0,0,0,0,0,0,0,0,0,0,0,0,0,0,0,0,0,0,0,0,0,0,0,0,0,0,0,0,0,0,0,0,0,0,0,0,0,0,0,0,0,0,0,0,0,0,0,0,0,0,0,0,0,0,0,0,0,0,0,0,0,0,0,0,0,0,0,0,0,0,0,0,0,0,0,0,0,0,0,0,0,0,0,0,0],"sum_hessian":[1.1946158E3,8.8940985E2,3.05206E2,3.7478024E2,5.146296E2,1.3977774E1,2.9122824E2,3.3836295E2,3.6417297E1,1.8733372E2,3.2729584E2,3.081975E0,1.0895799E1,1.4020564E2,1.5102258E2,3.371576E2,1.2053708E0,4.1605344E0,3.2256763E1,7.1340706E1,1.1599302E2,1.9889082E1,3.0740677E2,1.8500074E0,1.2319676E0,1.1669308E0,9.7288685E0,8.4640526E1,5.556512E1,1.3544078E2,1.5581809E1,3.225315E2,1.4626096E1,1.612748E0,2.5477865E0,2.365707E1,8.599693E0,5.591819E1,1.5422519E1,1.141134E2,1.879617E0,1.614154E1,3.747542E0,2.810236E2,2.6383175E1,8.012322E0,1.7165453E0,3.3708508E1,5.093202E1,1.9359499E1,3.6205624E1,3.929072E0,1.315117E2,1.146488E1,4.116929E0,3.0645853E2,1.6072979E1,1.052593E1,4.100166E0,1.3569744E0,1.1908121E0,2.0124369E1,3.5327013E0,7.592237E0,1.0074563E0,9.874625E0,4.6043564E1,1.180647E1,3.6160483E0,6.877173E1,4.5341675E1,1.5011343E1,1.1301973E0,2.7312262E0,1.0163156E0,2.3800835E2,4.3015247E1,2.0649492E1,5.7336826E0,3.2449436E1,1.2590709E0,5.9418297E0,4.499019E1,7.068335E0,1.2291163E1,2.791637E0,3.3413986E1,2.1891036E0,1.7399684E0,1.8214461E0,1.2969026E2,1.4853518E0,9.979527E0,1.984018E0,2.1329112E0],"tree_param":{"num_deleted":"0","num_feature":"9","num_nodes":"95","size_leaf_vector":"0"}},{"base_weights":[-6.1148006E-2,-3.2914865E-1,-4.1517813E-2,2.0414114E-1,-5.0699264E-1,4.1312355E-1,-5.5925895E-2,-3.473066E-1,6.466912E-1,-5.553352E-1,6.533574E-1,1.8316957E-1,1.1521103E0,2.1922976E-1,-7.426808E-2,-8.4848636E-1,6.647897E-2,-3.056316E-1,1.2292591E0,-7.813657E-1,-3.6780596E-1,5.7071173E-1,-5.40516E-1,-4.5373508E-1,1.9715971E0,-2.4579066E-1,4.54373E-1,-6.84916E-2,-7.907403E-1,5.7145154E-1,-6.899954E-1,-7.4233866E-1,3.1138772E-1,-5.75464E-1,1.6696675E0,-3.4512419E-1,-8.66339E-1,4.4017977E-1,-5.752412E-1,-5.637625E-1,8.701088E-1,-8.917106E-1,2.3715271E-1,-2.1812417E-2,-6.242537E-1,-2.9422516E-1,3.1449168E0,-6.503252E-1,3.724005E-1,